<?xml version="1.0"?>
<opencv_storage>
<my_svm type_id="opencv-ml-svm">
  <svm_type>C_SVC</svm_type>
  <kernel><type>RBF</type>
    <gamma>2.2500000000000003e-03</gamma></kernel>
  <C>2.5000000000000000e+00</C>
  <term_criteria><epsilon>2.2204460492503131e-16</epsilon>
    <iterations>1000</iterations></term_criteria>
  <var_all>768</var_all>
  <var_count>768</var_count>
  <class_count>2</class_count>
  <class_labels type_id="opencv-matrix">
    <rows>1</rows>
    <cols>2</cols>
    <dt>i</dt>
    <data>
      -1 1</data></class_labels>
  <class_weights type_id="opencv-matrix">
    <rows>2</rows>
    <cols>1</cols>
    <dt>d</dt>
    <data>
      2.2499999403953552e+00 2.5000000372529030e-01</data></class_weights>
  <sv_total>111</sv_total>
  <support_vectors>
    <_>
      1.02857147e+02 0. 0. 0. 0. 0. 0. 0. 0. 0. 0. 0. 0. 0. 0. 0. 0. 0.
      0. 0. 0. 0. 0. 0. 0. 0. 0. 0. 0. 0. 0. 0. 0. 0. 0. 0. 0. 0. 0. 0.
      0. 0. 0. 0. 0. 0. 0. 0. 0. 0. 0. 0. 0. 0. 0. 0. 0. 0. 0. 0. 0. 0.
      0. 0. 0. 0. 0. 0. 0. 0. 0. 0. 0. 0. 0. 0. 0. 0. 0. 0. 0. 0. 0. 0.
      0. 0. 0. 0. 0. 0. 0. 0. 0. 0. 0. 0. 0. 0. 0. 0. 0. 0. 0. 0. 0. 0.
      0. 0. 0. 0. 0. 0. 0. 0. 0. 0. 0. 0. 0. 0. 0. 0. 0. 0. 0. 0. 0. 0.
      0. 0. 0. 0. 0. 0. 0. 0. 0. 0. 0. 0. 0. 0. 0. 0. 0. 0. 0. 0. 0. 0.
      0. 0. 0. 0. 0. 0. 0. 0. 0. 0. 0. 0. 0. 0. 0. 0. 0. 0. 0. 0. 0. 0.
      0. 0. 0. 0. 0. 0. 0. 0. 0. 0. 0. 0. 0. 0. 0. 0. 0. 0. 0. 0. 0. 0.
      0. 0. 0. 0. 0. 0. 0. 0. 0. 0. 0. 0. 0. 0. 0. 0. 0. 0. 0. 0. 0. 0.
      0. 0. 0. 0. 0. 0. 0. 0. 0. 0. 0. 0. 0. 0. 0. 0. 0. 0. 0. 0. 0. 0.
      0. 0. 0. 0. 0. 0. 0. 0. 0. 0. 0. 0. 0. 0. 0. 0. 0. 0.
      1.02857147e+02 0. 0. 0. 0. 0. 0. 0. 0. 0. 0. 0. 0. 0. 0. 0. 0. 0.
      0. 0. 0. 0. 0. 0. 0. 0. 0. 0. 0. 0. 0. 0. 0. 0. 0. 0. 0. 0. 0. 0.
      0. 0. 0. 0. 0. 0. 0. 0. 0. 0. 0. 0. 0. 0. 0. 0. 0. 0. 0. 0. 0. 0.
      0. 0. 0. 0. 0. 0. 0. 0. 0. 0. 0. 0. 0. 0. 0. 0. 0. 0. 0. 0. 0. 0.
      0. 0. 0. 0. 0. 0. 0. 0. 0. 0. 0. 0. 0. 0. 0. 0. 0. 0. 0. 0. 0. 0.
      0. 0. 0. 0. 0. 0. 0. 0. 0. 0. 0. 0. 0. 0. 0. 0. 0. 0. 0. 0. 0. 0.
      0. 0. 0. 0. 0. 0. 0. 0. 0. 0. 0. 0. 0. 0. 0. 0. 0. 0. 0. 0. 0. 0.
      0. 0. 0. 0. 0. 0. 0. 0. 0. 0. 0. 0. 0. 0. 0. 0. 0. 0. 0. 0. 0. 0.
      0. 0. 0. 0. 0. 0. 0. 0. 0. 0. 0. 0. 0. 0. 0. 0. 0. 0. 0. 0. 0. 0.
      0. 0. 0. 0. 0. 0. 0. 0. 0. 0. 0. 0. 0. 0. 0. 0. 0. 0. 0. 0. 0. 0.
      0. 0. 0. 0. 0. 0. 0. 0. 0. 0. 0. 0. 0. 0. 0. 0. 0. 0. 0. 0. 0. 0.
      0. 0. 0. 0. 0. 0. 0. 0. 0. 0. 0. 0. 0. 0. 0. 0. 0. 0. 0. 0. 0. 0.
      0. 0. 0. 0. 0. 0. 0. 0. 0. 0. 0. 0. 0. 0. 0. 0. 0. 0. 0. 0. 0. 0.
      0. 0. 0. 0. 0. 0. 0. 0. 0. 0. 0. 0. 0. 0. 0. 0. 0. 0. 0. 0. 0. 0.
      0. 0. 0. 0. 0. 0. 0. 0. 0. 0. 0. 0. 0. 0. 0. 0. 0. 0. 0. 0. 0. 0.
      0. 0. 0. 0. 0. 0. 0. 0. 0. 0. 0. 0. 0. 0. 0. 0. 0. 0. 0. 0. 0. 0.
      0. 0. 0. 0. 0. 0. 0. 0. 0. 0. 0. 0. 0. 0. 0. 0. 0. 0. 0. 0. 0. 0.
      0. 0. 0. 0. 0. 0. 0. 0. 0. 0. 0. 0. 0. 0. 0. 0. 0. 0. 0. 0. 0. 0.
      0. 0. 0. 0. 0. 0. 0. 0. 0. 0. 0. 0. 0. 0. 0. 0. 0. 0. 0. 0. 0. 0.
      0. 0. 2.38095247e-03 2.38095247e-03 2.38095247e-03 4.76190494e-03
      7.14285765e-03 9.52380989e-03 9.52380989e-03 0. 1.19047621e-02
      3.09523828e-02 1.66666675e-02 2.38095243e-02 1.90476198e-02
      2.14285720e-02 2.14285720e-02 3.09523828e-02 2.38095243e-02
      2.14285720e-02 1.66666675e-02 1.66666675e-02 1.90476198e-02
      3.57142873e-02 2.14285720e-02 2.85714306e-02 3.09523828e-02
      3.33333351e-02 1.90476198e-02 3.33333351e-02 3.33333351e-02
      1.90476198e-02 1.19047621e-02 2.85714306e-02 2.38095243e-02
      3.09523828e-02 2.61904765e-02 3.09523828e-02 1.90476198e-02
      3.80952395e-02 2.61904765e-02 2.14285720e-02 2.61904765e-02
      1.90476198e-02 2.61904765e-02 1.19047621e-02 3.33333351e-02
      1.90476198e-02 1.42857153e-02 1.66666675e-02 2.14285720e-02
      2.85714306e-02 9.52380989e-03 1.66666675e-02 1.90476198e-02
      1.19047621e-02 1.66666675e-02 9.52380989e-03 1.19047621e-02
      1.90476198e-02 1.19047621e-02 3.33333351e-02 1.42857153e-02
      1.42857153e-02 1.42857153e-02 1.19047621e-02 2.61904765e-02
      2.14285720e-02 2.14285720e-02 2.14285720e-02 1.90476198e-02
      2.38095243e-02 3.09523828e-02 2.38095243e-02 2.14285720e-02
      1.66666675e-02 2.38095243e-02 3.33333351e-02 7.38095269e-02
      1.95238099e-01 3.09523828e-02 3.80952395e-02 5.47619052e-02
      5.71428612e-02 4.76190485e-02 7.14285746e-02 9.52380970e-02
      1.35714293e-01 1.73809528e-01 1.95238099e-01 1.97619051e-01
      1.53095245e+00 1.85833340e+01 1.59047627e+00 3.95238101e-01
      6.50000036e-01 1.48571432e+00 7.57166672e+01</_>
    <_>
      6.04723625e+01 0. 0. 0. 0. 0. 1.37437189e+00 0. 1.25628142e-02 0.
      2.51256283e-02 0. 0. 0. 0. 5.52763827e-02 0. 0. 0. 0.
      4.94974881e-01 0. 0. 0. 0. 0. 0. 0. 0. 0. 3.36683422e-01 0. 0. 0.
      0. 0. 0. 0. 0. 0. 0. 0. 0. 0. 0. 5.02512557e-03 0. 0. 0. 0.
      5.02512557e-03 0. 0. 0. 0. 0. 0. 0. 0. 0. 0. 0. 0. 0. 0. 0. 0. 0.
      0. 0. 0. 0. 0. 0. 0. 7.98994958e-01 0. 0. 0. 0. 0. 0. 0.
      2.01005023e-02 0. 0. 0. 0. 0. 0. 9.17085409e-01 0. 0. 0. 0. 0. 0.
      0. 0. 0. 0. 0. 0. 0. 0. 7.53768813e-03 0. 0. 0. 0. 7.53768813e-03
      0. 0. 0. 0. 0. 0. 0. 0. 0. 3.26633155e-02 0. 0. 0. 0. 0. 0. 0. 0.
      0. 0. 0. 0. 0. 0. 0. 0. 0. 0. 0. 1.00502511e-02 0. 0. 0. 0. 0. 0.
      0. 0. 0. 2.23366833e+00 0. 0. 0. 0. 0. 0. 0. 0. 0. 5.02512557e-03
      0. 0. 0. 0. 4.69346714e+00 0. 0. 0. 0. 5.75376868e-01 0. 0.
      1.57788944e+00 0. 0. 0. 2.08542705e-01 0. 0. 0. 0. 0. 0. 0. 0. 0.
      0. 0. 0. 0. 0. 0. 0. 0. 0. 0. 0. 0. 0. 0. 0. 0. 0. 0. 0. 0. 0. 0.
      0. 0. 0. 0. 0. 0. 0. 0. 0. 0. 0. 0. 0. 0. 0. 0. 0. 0. 0. 0. 0. 0.
      0. 0. 0. 0. 0. 0. 0. 0. 0. 0. 0. 0. 0. 0. 0. 0. 0. 0. 0. 0. 0. 0.
      0. 0. 0. 5.95929642e+01 3.14572859e+00 4.61557770e+00
      1.64572859e+00 4.24623102e-01 6.58291459e-01 1.02512562e+00
      5.52763820e-01 9.19597983e-01 3.51758778e-01 6.60804033e-01
      1.75879393e-02 2.51256283e-02 5.02512557e-03 2.18592957e-01
      7.53768813e-03 2.51256279e-03 0. 0. 0. 0. 0. 0. 0. 0. 0. 0. 0. 0.
      0. 0. 0. 0. 0. 0. 0. 0. 0. 0. 0. 0. 0. 0. 0. 0. 0. 0. 0. 0. 0. 0.
      0. 0. 0. 0. 0. 0. 0. 0. 0. 0. 0. 0. 0. 0. 0. 0. 0. 0. 0. 0. 0. 0.
      0. 0. 0. 0. 0. 0. 0. 0. 0. 0. 0. 0. 0. 0. 0. 0. 0. 0. 0. 0. 0. 0.
      0. 0. 0. 0. 0. 0. 0. 0. 0. 0. 0. 0. 0. 0. 0. 0. 0. 0. 0. 0. 0. 0.
      0. 0. 0. 0. 0. 0. 0. 0. 0. 0. 0. 0. 0. 0. 0. 0. 0. 0. 0. 0. 0. 0.
      0. 0. 0. 0. 0. 0. 0. 0. 0. 0. 0. 0. 0. 0. 0. 0. 0. 0. 0. 0. 0. 0.
      0. 0. 0. 0. 0. 0. 0. 0. 0. 0. 0. 0. 0. 0. 0. 0. 0. 0. 0. 0. 0. 0.
      0. 0. 0. 0. 0. 0. 0. 0. 0. 0. 0. 0. 0. 0. 0. 0. 0. 0. 0. 0. 0. 0.
      0. 0. 0. 0. 0. 0. 0. 0. 0. 0. 0. 0. 0. 0. 0. 0. 0. 0. 0. 0. 0. 0.
      0. 0. 0. 0. 0. 0. 0. 0. 0. 0. 0. 0. 0. 0. 0. 0. 0. 0. 0. 0. 0. 0.
      0. 0. 0. 0. 0. 0. 0. 0. 0. 0. 0. 0. 0. 0. 0. 0. 0. 0. 0. 0. 0. 0.
      0. 0. 0. 0. 0. 0. 0. 0. 0. 0. 0. 0. 0. 0. 0. 0. 0. 0. 0. 0. 0. 0.
      0. 0. 0. 0. 0. 0. 0. 0. 0. 0. 0. 0. 0. 0. 0. 0. 0. 0. 0. 0. 0. 0.
      0. 0. 0. 0. 0. 0. 0. 0. 0. 0. 0. 0. 0. 0. 0. 0. 0. 0. 0. 0. 0. 0.
      0. 0. 0. 0. 0. 0. 0. 0. 0. 0. 0. 0. 0. 0. 0. 0. 0. 0. 0. 0. 0. 0.
      0. 0. 0. 0. 0. 0. 0. 0. 0. 0. 0. 0. 0. 0. 0. 0. 0. 0. 0. 0. 0. 0.
      0. 0. 0. 0. 0. 0. 0. 0. 0. 0. 0. 0. 0. 0. 0. 0. 0. 0. 0. 0. 0. 0.
      0. 0. 2.51256279e-03 2.51256279e-03 2.51256279e-03 1.50753763e-02
      1.00502511e-02 3.51758786e-02 7.03517571e-02 1.30653262e-01
      2.13567838e-01 2.78894484e-01 4.69849229e-01 4.49748725e-01
      4.72361803e-01 2.83919603e-01 2.76381910e-01 1.43216074e-01
      9.04522613e-02 8.54271352e-02 4.77386937e-02 4.02010046e-02
      6.28140718e-02 3.76884416e-02 4.52261306e-02 3.76884416e-02
      4.52261306e-02 2.76381914e-02 2.51256283e-02 5.77889457e-02
      5.27638197e-02 5.52763827e-02 5.52763827e-02 5.77889457e-02
      7.53768831e-02 8.54271352e-02 1.08040199e-01 2.38693461e-01
      1.55778900e-01 2.66331643e-01 2.26130649e-01 1.33165821e-01
      8.54271352e-02 6.53266311e-02 4.77386937e-02 2.76381914e-02
      3.26633155e-02 2.26130653e-02 3.01507525e-02 6.28140718e-02
      4.02010046e-02 3.76884416e-02 2.76381914e-02 2.26130653e-02
      4.77386937e-02 2.76381914e-02 4.02010046e-02 3.76884416e-02
      3.76884416e-02 6.28140718e-02 8.54271352e-02 1.00502513e-01
      1.10552765e-01 1.53266326e-01 1.13065325e-01 1.08040199e-01
      9.04522613e-02 6.78391978e-02 5.27638197e-02 2.26130653e-02
      5.27638197e-02 4.27135676e-02 3.76884416e-02 3.76884416e-02
      2.26130653e-02 2.51256283e-02 2.76381914e-02 2.01005023e-02
      2.51256283e-02 3.51758786e-02 5.77889457e-02 7.28643239e-02
      1.88442215e-01 8.79396945e-02 8.04020092e-02 1.00502513e-01
      8.04020092e-02 4.52261306e-02 4.52261306e-02 4.27135676e-02
      3.26633155e-02 2.51256283e-02 3.76884416e-02 4.27135676e-02
      4.52261306e-02 6.03015050e-02 3.51758786e-02 5.27638197e-02
      3.51758786e-02 4.02010046e-02 7.53768831e-02 1.05527639e-01
      1.38190955e-01 2.88944721e-01 5.95477402e-01 1.39698493e+00
      2.64070344e+00 4.29145718e+00 5.61708527e+01</_>
    <_>
      5.93544655e+01 0. 0. 0. 0. 0. 0. 0. 0. 0. 0. 0. 0. 0. 0. 0. 0. 0.
      0. 0. 0. 0. 0. 0. 0. 0. 0. 0. 0. 0. 0. 0. 0. 0. 0. 0. 0. 0. 0. 0.
      0. 0. 0. 0. 0. 0. 0. 0. 0. 0. 0. 0. 0. 0. 0. 0. 0. 0. 0. 0. 0. 0.
      0. 0. 0. 0. 0. 0. 0. 0. 0. 0. 0. 0. 0. 0. 0. 0. 0. 0. 0. 0. 0. 0.
      0. 0. 0. 0. 0. 0. 0. 0. 0. 0. 0. 0. 0. 0. 0. 0. 0. 0. 0. 0. 0. 0.
      0. 0. 0. 0. 0. 0. 0. 0. 0. 0. 0. 0. 0. 0. 0. 0. 0. 0. 0. 0. 0. 0.
      0. 0. 0. 0. 0. 0. 0. 0. 0. 0. 0. 0. 0. 0. 0. 0. 0. 0. 0. 0. 0. 0.
      0. 0. 0. 0. 0. 0. 0. 0. 0. 0. 0. 0. 0. 0. 0. 0. 0. 0. 0. 0. 0. 0.
      0. 0. 0. 0. 0. 0. 0. 0. 0. 0. 0. 0. 0. 0. 0. 0. 0. 0. 0. 0. 0. 0.
      0. 0. 0. 0. 0. 0. 0. 0. 0. 0. 0. 0. 0. 0. 0. 0. 0. 0. 0. 0. 0. 0.
      0. 0. 0. 0. 0. 0. 0. 0. 0. 0. 0. 0. 0. 0. 0. 0. 0. 0. 0. 0. 0. 0.
      0. 0. 0. 0. 0. 0. 0. 0. 0. 0. 0. 0. 0. 0. 0. 0. 0. 0.
      5.93544655e+01 0. 0. 0. 0. 0. 0. 0. 0. 0. 0. 0. 0. 0. 0. 0. 0. 0.
      0. 0. 0. 0. 0. 0. 0. 0. 0. 0. 0. 0. 0. 0. 0. 0. 0. 0. 0. 0. 0. 0.
      0. 0. 0. 0. 0. 0. 0. 0. 0. 0. 0. 0. 0. 0. 0. 0. 0. 0. 0. 0. 0. 0.
      0. 0. 0. 0. 0. 0. 0. 0. 0. 0. 0. 0. 0. 0. 0. 0. 0. 0. 0. 0. 0. 0.
      0. 0. 0. 0. 0. 0. 0. 0. 0. 0. 0. 0. 0. 0. 0. 0. 0. 0. 0. 0. 0. 0.
      0. 0. 0. 0. 0. 0. 0. 0. 0. 0. 0. 0. 0. 0. 0. 0. 0. 0. 0. 0. 0. 0.
      0. 0. 0. 0. 0. 0. 0. 0. 0. 0. 0. 0. 0. 0. 0. 0. 0. 0. 0. 0. 0. 0.
      0. 0. 0. 0. 0. 0. 0. 0. 0. 0. 0. 0. 0. 0. 0. 0. 0. 0. 0. 0. 0. 0.
      0. 0. 0. 0. 0. 0. 0. 0. 0. 0. 0. 0. 0. 0. 0. 0. 0. 0. 0. 0. 0. 0.
      0. 0. 0. 0. 0. 0. 0. 0. 0. 0. 0. 0. 0. 0. 0. 0. 0. 0. 0. 0. 0. 0.
      0. 0. 0. 0. 0. 0. 0. 0. 0. 0. 0. 0. 0. 0. 0. 0. 0. 0. 0. 0. 0. 0.
      0. 0. 0. 0. 0. 0. 0. 0. 0. 0. 0. 0. 0. 0. 0. 0. 0. 0. 0. 0. 0. 0.
      0. 0. 0. 0. 0. 0. 0. 0. 0. 0. 0. 0. 0. 0. 0. 0. 0. 0. 0. 0. 0. 0.
      0. 0. 0. 0. 0. 0. 0. 0. 0. 0. 0. 0. 0. 0. 0. 0. 0. 0. 0. 0. 0. 0.
      0. 0. 0. 0. 0. 0. 0. 0. 0. 0. 0. 0. 0. 0. 0. 0. 0. 0. 0. 0. 0. 0.
      0. 0. 0. 0. 0. 0. 0. 0. 0. 0. 0. 0. 0. 0. 0. 0. 0. 0. 0. 0. 0. 0.
      0. 0. 0. 0. 0. 0. 0. 0. 0. 0. 0. 0. 0. 0. 0. 0. 0. 0. 0. 0. 0. 0.
      0. 0. 0. 0. 0. 0. 0. 0. 0. 0. 0. 0. 0. 0. 0. 0. 0. 0. 0. 0. 0. 0.
      0. 0. 0. 0. 0. 0. 0. 0. 0. 0. 0. 0. 0. 0. 0. 0. 8.64553303e-02
      5.33141184e+00 1.21037461e-01 2.88184430e-03 0. 1.44092217e-02
      2.88184430e-03 2.88184430e-03 0. 8.64553265e-03 2.88184430e-03 0.
      0. 0. 2.88184430e-03 0. 5.76368859e-03 1.44092217e-02
      1.15273772e-02 1.15273772e-02 0. 1.15273772e-02 0. 8.64553265e-03
      2.88184434e-02 2.88184430e-03 5.76368859e-03 0. 2.88184430e-03
      5.76368859e-03 5.76368859e-03 2.88184430e-03 0. 2.88184430e-03
      8.64553265e-03 1.15273772e-02 1.15273772e-02 8.64553265e-03
      2.88184430e-03 0. 8.64553265e-03 5.76368859e-03 1.15273772e-02
      2.88184430e-03 8.64553265e-03 1.15273772e-02 0. 2.88184430e-03 0.
      5.76368859e-03 3.17002870e-02 1.43515849e+00 3.29193077e+01
      1.55907774e+00 2.59365980e-02 1.18155614e-01 2.59365980e-02
      1.72910653e-02 4.61095087e-02 2.96829969e-01 4.03458215e-02
      2.59365980e-02 9.51008648e-02 1.72910653e-02 2.59365980e-02
      1.64265126e-01 3.45821321e-01 4.61095087e-02 2.30547544e-02
      5.18731959e-02 1.72910653e-02 4.89913523e-02 1.70028821e-01
      3.17002870e-02 1.44092217e-02 4.32276651e-02 1.70028821e-01
      1.46974057e-01 4.61095087e-02 5.47550432e-02 2.59365980e-02
      3.74639742e-02 2.01729108e-02 1.38328522e-01 4.61095087e-02
      2.59365980e-02 5.47550432e-02 3.17002870e-02 1.15273772e-02
      1.00864552e-01 1.23919308e-01 3.17002870e-02 2.01729108e-02
      8.35734829e-02 2.59365980e-02 1.15273772e-02 7.49279484e-02
      6.05187304e-02 2.88184430e-03 2.88184434e-02 1.06628239e-01
      4.32276651e-02 1.21902013e+00 1.31757917e+01</_>
    <_>
      1.73750007e+00 0. 2.91666687e-02 1.41666681e-01 0. 1.33333337e+00
      3.12500024e+00 0. 3.47500014e+00 2.50000000e-01 2.08333340e-02
      7.92500019e+00 1.12500004e-01 1.42500010e+01 4.85416698e+00
      2.51250005e+00 3.76250029e+00 5.54166675e-01 4.20833349e-01
      1.95416677e+00 5.64583349e+00 6.75000012e-01 6.66666701e-02
      1.08333342e-01 1.05833340e+00 2.33333349e-01 2.08333340e-02 0. 0.
      0. 5.95833361e-01 0. 0. 0. 1.25000011e-02 2.91666687e-02
      1.04166672e-01 0. 0. 0. 4.16666688e-03 0. 8.33333377e-03 0. 0. 0.
      0. 0. 0. 0. 2.91666687e-02 0. 0. 0. 0. 0. 0. 0. 0. 0. 0. 0. 0. 0.
      0. 0. 0. 0. 0. 0. 0. 0. 0. 0. 0. 5.00000045e-02 0. 0. 0. 0. 0. 0.
      0. 4.16666688e-03 0. 0. 0. 0. 0. 0. 0. 0. 0. 0. 0. 0. 0. 0. 0. 0.
      0. 0. 0. 0. 0. 0. 0. 0. 0. 0. 0. 0. 0. 0. 0. 0. 0. 0. 0. 0. 0. 0.
      0. 0. 0. 0. 0. 0. 0. 0. 0. 0. 4.16666679e-02 0. 0. 0. 0. 0. 0. 0.
      3.00000012e-01 0. 0. 0. 0. 0. 0. 0. 0. 0. 5.00000045e-02 0. 0. 0.
      0. 0. 2.08333340e-02 0. 0. 0. 1.66666675e-02 0. 0. 0. 0.
      3.87083364e+00 0. 0. 8.33333377e-03 4.16666688e-03 1.25000000e-01
      0. 0. 3.87500018e-01 0. 0. 0. 7.08333403e-02 0. 0. 0. 0. 0. 0. 0.
      0. 0. 0. 0. 0. 0. 0. 0. 0. 0. 0. 0. 0. 0. 0. 0. 0. 0. 0. 0. 0. 0.
      0. 0. 0. 0. 0. 0. 0. 0. 0. 0. 0. 0. 0. 0. 0. 0. 0. 0. 0. 0. 0. 0.
      0. 0. 0. 0. 0. 0. 0. 0. 0. 0. 0. 0. 0. 0. 0. 0. 0. 0. 0. 0. 0. 0.
      0. 0. 0. 0. 0. 1.21250010e+00 5.00000045e-02 4.39583349e+00
      5.89166689e+00 4.25000012e-01 3.92500019e+00 6.50000036e-01
      5.54166698e+00 3.25416684e+00 3.95000029e+00 1.95833349e+00
      1.15833342e+00 2.20000005e+00 9.79166746e-01 1.97083342e+00
      1.63333344e+00 2.43750024e+00 2.31250024e+00 2.37083340e+00
      2.83333349e+00 2.92916679e+00 2.09166670e+00 1.48750007e+00
      1.27500010e+00 9.45833385e-01 4.83333349e-01 4.41666692e-01
      3.08333337e-01 2.70833343e-01 2.62500018e-01 1.66666672e-01
      8.33333358e-02 2.91666687e-02 2.50000022e-02 2.08333340e-02
      1.66666675e-02 8.33333377e-03 0. 0. 4.16666688e-03 0. 0. 0. 0. 0.
      0. 0. 0. 0. 0. 0. 0. 0. 0. 0. 0. 0. 0. 0. 0. 0. 0. 0. 0. 0. 0. 0.
      0. 0. 0. 0. 0. 0. 0. 0. 0. 0. 0. 0. 0. 0. 0. 0. 0. 0. 0. 0. 0. 0.
      0. 0. 0. 0. 0. 0. 0. 0. 0. 0. 0. 0. 0. 0. 0. 0. 0. 0. 0. 0. 0. 0.
      0. 0. 0. 0. 0. 0. 0. 0. 0. 0. 0. 0. 0. 0. 0. 0. 0. 0. 0. 0. 0. 0.
      0. 0. 0. 0. 0. 0. 0. 0. 0. 0. 0. 0. 0. 0. 0. 0. 0. 0. 0. 0. 0. 0.
      0. 0. 0. 0. 0. 0. 0. 0. 0. 0. 0. 0. 0. 0. 0. 0. 0. 0. 0. 0. 0. 0.
      0. 0. 0. 0. 0. 0. 0. 0. 0. 0. 0. 0. 0. 0. 0. 0. 0. 0. 0. 0. 0. 0.
      0. 0. 0. 0. 0. 0. 0. 0. 0. 0. 0. 0. 0. 0. 0. 0. 0. 0. 0. 0. 0. 0.
      0. 0. 0. 0. 0. 0. 0. 0. 0. 0. 0. 0. 0. 0. 0. 0. 0. 0. 0. 0. 0. 0.
      0. 0. 0. 0. 0. 0. 0. 0. 0. 0. 0. 0. 0. 0. 0. 0. 0. 0. 0. 0. 0. 0.
      0. 0. 0. 0. 0. 0. 0. 0. 0. 0. 0. 0. 0. 0. 0. 0. 0. 0. 0. 0. 0. 0.
      0. 0. 0. 0. 0. 0. 0. 0. 0. 0. 0. 0. 0. 0. 0. 0. 0. 0. 0. 0. 0. 0.
      0. 0. 0. 0. 0. 0. 0. 0. 0. 0. 0. 0. 0. 0. 0. 0. 0. 0. 0. 0. 0. 0.
      0. 0. 0. 0. 0. 0. 0. 0. 0. 0. 0. 0. 0. 0. 0. 0. 0. 0. 0. 0. 0. 0.
      0. 0. 0. 0. 0. 0. 0. 0. 0. 0. 0. 0. 0. 0. 0. 0. 0. 0. 0. 0. 0. 0.
      0. 0. 0. 4.16666688e-03 8.33333377e-03 2.08333340e-02
      1.25000011e-02 1.66666675e-02 2.91666687e-02 2.08333340e-02
      4.58333343e-02 5.00000045e-02 7.50000030e-02 6.66666701e-02
      1.29166678e-01 1.04166672e-01 1.58333346e-01 1.37500003e-01
      1.83333337e-01 2.58333355e-01 2.20833346e-01 1.87500015e-01
      2.95833349e-01 1.83333337e-01 2.16666684e-01 2.66666681e-01
      2.54166692e-01 2.12500006e-01 1.87500015e-01 1.83333337e-01
      1.95833340e-01 1.79166675e-01 1.25000000e-01 1.37500003e-01
      9.58333388e-02 1.16666675e-01 1.45833343e-01 5.41666709e-02
      8.75000060e-02 7.91666731e-02 6.66666701e-02 6.25000000e-02
      8.75000060e-02 9.16666687e-02 5.41666709e-02 5.41666709e-02
      6.66666701e-02 5.83333373e-02 5.41666709e-02 5.41666709e-02
      7.08333403e-02 5.00000045e-02 4.16666679e-02 4.16666679e-02
      7.50000030e-02 8.75000060e-02 4.58333343e-02 4.16666679e-02
      3.75000015e-02 5.41666709e-02 8.33333358e-02 7.08333403e-02
      6.25000000e-02 6.25000000e-02 6.66666701e-02 5.41666709e-02
      9.58333388e-02 8.75000060e-02 7.08333403e-02 6.66666701e-02
      7.91666731e-02 5.00000045e-02 5.83333373e-02 5.83333373e-02
      8.75000060e-02 3.75000015e-02 9.16666687e-02 5.00000045e-02
      7.50000030e-02 5.83333373e-02 9.16666687e-02 7.50000030e-02
      7.91666731e-02 7.91666731e-02 8.33333358e-02 7.08333403e-02
      9.16666687e-02 9.16666687e-02 1.08333342e-01 1.33333340e-01
      2.58333355e-01 3.50000024e-01 3.58333349e-01 4.29166675e-01
      4.62500036e-01 4.87500012e-01 4.91666704e-01 4.95833367e-01
      4.66666698e-01 4.33333367e-01 4.50000018e-01 4.91666704e-01
      5.29166698e-01 4.79166687e-01 6.20833337e-01 6.16666675e-01
      5.12500048e-01 7.00000048e-01 6.33333385e-01 6.54166698e-01
      7.79166698e-01 7.95833349e-01 8.37500036e-01 7.50000060e-01
      7.95833349e-01 9.62500036e-01 1.04166675e+00 1.10000002e+00
      1.20416677e+00 1.24166667e+00 1.32500005e+00 1.46250010e+00
      1.51250005e+00 1.44583344e+00 1.61666679e+00 1.90416682e+00
      2.21666670e+00 2.58333349e+00 2.48750019e+00 2.72916675e+00
      2.38750005e+00 2.57500005e+00 2.43750024e+00 2.03750014e+00
      1.52916670e+00 1.14583337e+00 9.62500036e-01</_>
    <_>
      40. 0. 0. 0. 0. 0. 0. 0. 0. 0. 0. 0. 0. 0. 0. 0. 0. 0. 0. 0. 0. 0.
      0. 0. 0. 0. 0. 0. 0. 0. 0. 0. 0. 0. 0. 0. 0. 0. 0. 0. 0. 0. 0. 0.
      0. 0. 0. 0. 0. 0. 0. 0. 0. 0. 0. 0. 0. 0. 0. 0. 0. 0. 0. 0. 0. 0.
      0. 0. 0. 0. 0. 0. 0. 0. 0. 0. 0. 0. 0. 0. 0. 0. 0. 0. 0. 0. 0. 0.
      0. 0. 0. 0. 0. 0. 0. 0. 0. 0. 0. 0. 0. 0. 0. 0. 0. 0. 0. 0. 0. 0.
      0. 0. 0. 0. 0. 0. 0. 0. 0. 0. 0. 0. 0. 0. 0. 0. 0. 0. 0. 0. 0. 0.
      0. 0. 0. 0. 0. 0. 0. 0. 0. 0. 0. 0. 0. 0. 0. 0. 0. 0. 0. 0. 0. 0.
      0. 0. 0. 0. 0. 0. 0. 0. 0. 0. 0. 0. 0. 0. 0. 0. 0. 0. 0. 0. 0. 0.
      0. 0. 0. 0. 0. 0. 0. 0. 0. 0. 0. 0. 0. 0. 0. 0. 0. 0. 0. 0. 0. 0.
      0. 0. 0. 0. 0. 0. 0. 0. 0. 0. 0. 0. 0. 0. 0. 0. 0. 0. 0. 0. 0. 0.
      0. 0. 0. 0. 0. 0. 0. 0. 0. 0. 0. 0. 0. 0. 0. 0. 0. 0. 0. 0. 0. 0.
      0. 0. 0. 0. 0. 0. 0. 0. 0. 0. 0. 0. 0. 0. 40. 0. 0. 0. 0. 0. 0. 0.
      0. 0. 0. 0. 0. 0. 0. 0. 0. 0. 0. 0. 0. 0. 0. 0. 0. 0. 0. 0. 0. 0.
      0. 0. 0. 0. 0. 0. 0. 0. 0. 0. 0. 0. 0. 0. 0. 0. 0. 0. 0. 0. 0. 0.
      0. 0. 0. 0. 0. 0. 0. 0. 0. 0. 0. 0. 0. 0. 0. 0. 0. 0. 0. 0. 0. 0.
      0. 0. 0. 0. 0. 0. 0. 0. 0. 0. 0. 0. 0. 0. 0. 0. 0. 0. 0. 0. 0. 0.
      0. 0. 0. 0. 0. 0. 0. 0. 0. 0. 0. 0. 0. 0. 0. 0. 0. 0. 0. 0. 0. 0.
      0. 0. 0. 0. 0. 0. 0. 0. 0. 0. 0. 0. 0. 0. 0. 0. 0. 0. 0. 0. 0. 0.
      0. 0. 0. 0. 0. 0. 0. 0. 0. 0. 0. 0. 0. 0. 0. 0. 0. 0. 0. 0. 0. 0.
      0. 0. 0. 0. 0. 0. 0. 0. 0. 0. 0. 0. 0. 0. 0. 0. 0. 0. 0. 0. 0. 0.
      0. 0. 0. 0. 0. 0. 0. 0. 0. 0. 0. 0. 0. 0. 0. 0. 0. 0. 0. 0. 0. 0.
      0. 0. 0. 0. 0. 0. 0. 0. 0. 0. 0. 0. 0. 0. 0. 0. 0. 0. 0. 0. 0. 0.
      0. 0. 0. 0. 0. 0. 0. 0. 0. 0. 0. 0. 0. 0. 0. 0. 0. 0. 0. 0. 0. 0.
      0. 0. 0. 0. 0. 0. 0. 0. 0. 0. 0. 0. 0. 0. 0. 0. 0. 0. 0. 0. 0. 0.
      0. 0. 0. 0. 0. 0. 0. 0. 0. 0. 0. 0. 0. 0. 0. 0. 0. 0. 0. 0. 0. 0.
      0. 0. 0. 0. 0. 0. 0. 0. 0. 0. 0. 0. 0. 0. 0. 0. 0. 0. 0. 0. 0. 0.
      0. 0. 0. 0. 0. 0. 0. 0. 0. 0. 0. 0. 0. 0. 0. 0. 0. 0. 0. 0. 0. 0.
      0. 0. 0. 0. 0. 0. 0. 0. 0. 0. 6.25000009e-03 1.87500007e-02 0.
      1.25000002e-02 4.37499993e-02 1.25000000e-01 1.56250000e-01
      2.87499994e-01 3.87500018e-01 5.12499988e-01 4.87500012e-01
      4.61875010e+00 5.25000036e-01 3.62500012e-01 1.31250009e-01
      1.18749999e-01 5.62500022e-02 6.87500015e-02 3.75000015e-02
      1.25000002e-02 1.87500007e-02 2.50000004e-02 0. 6.25000009e-03
      6.25000009e-03 1.25000002e-02 1.25000002e-02 1.25000002e-02 0. 0.
      6.25000009e-03 0. 6.25000009e-03 6.25000009e-03 6.25000009e-03
      1.25000002e-02 0. 6.25000009e-03 6.25000009e-03 6.25000009e-03
      1.25000002e-02 6.25000009e-03 0. 6.25000009e-03 0. 2.50000004e-02
      3.12500000e-02 1.25000002e-02 0. 0. 0. 1.87500007e-02 0.
      1.87500007e-02 6.25000009e-03 1.25000002e-02 5.62500022e-02
      4.37499993e-02 8.74999985e-02 1.25000000e-01 2.06249997e-01
      3.31250012e-01 6.50000036e-01 1.18749999e-01 5.62500022e-02
      6.87500015e-02 2.50000004e-02 3.12500000e-02 1.25000002e-02
      3.12500000e-02 1.87500007e-02 6.25000009e-03 1.87500007e-02
      6.25000009e-03 1.25000002e-02 6.25000009e-03 6.25000009e-03
      1.87500007e-02 1.87500007e-02 0. 1.25000002e-02 2.50000004e-02
      6.25000009e-03 6.25000009e-03 6.25000009e-03 1.25000002e-02
      1.87500007e-02 1.87500007e-02 6.25000009e-03 6.25000009e-03 0. 0.
      2.50000004e-02 1.25000002e-02 1.87500007e-02 2.50000004e-02
      6.25000009e-03 1.87500007e-02 0. 1.87500007e-02 1.25000002e-02
      3.12500000e-02 1.25000002e-02 1.25000002e-02 6.25000009e-03
      1.87500007e-02 1.25000002e-02 1.87500007e-02 6.25000009e-03
      1.87500007e-02 7.50000030e-02 4.37499993e-02 1.93750009e-01
      9.37500000e-02 2.18750000e-01 8.12500045e-02 1.12500004e-01
      8.74999985e-02 9.37500000e-02 1.18749999e-01 1.56250000e-01
      1.37500003e-01 8.12500045e-02 8.12500045e-02 5.62500022e-02
      3.12500000e-02 7.50000030e-02 6.87500015e-02 6.87500015e-02
      5.00000007e-02 6.25000000e-02 1.06250003e-01 8.74999985e-02
      2.12500006e-01 8.12500045e-02 6.25000000e-02 7.50000030e-02
      6.25000000e-02 8.12500045e-02 1.25000000e-01 3.12500000e-02
      3.12500000e-02 5.00000007e-02 3.12500000e-02 4.37499993e-02
      3.12500000e-02 5.62500022e-02 6.87500015e-02 3.75000015e-02
      3.75000015e-02 3.75000015e-02 5.62500022e-02 1.06250003e-01
      8.74999985e-02 1.12500004e-01 8.74999985e-02 1.25000000e-01
      2.00000003e-01 2.25000009e-01 4.06250000e-01 6.06249988e-01
      1.29375005e+00 1.52499998e+00 2.12124996e+01</_>
    <_>
      5.14285736e+01 0. 0. 0. 0. 0. 0. 0. 0. 0. 0. 0. 0. 0. 0. 0. 0. 0.
      0. 0. 0. 0. 0. 0. 0. 0. 0. 0. 0. 0. 0. 0. 0. 0. 0. 0. 0. 0. 0. 0.
      0. 0. 0. 0. 0. 0. 0. 0. 0. 0. 0. 0. 0. 0. 0. 0. 0. 0. 0. 0. 0. 0.
      0. 0. 0. 0. 0. 0. 0. 0. 0. 0. 0. 0. 0. 0. 0. 0. 0. 0. 0. 0. 0. 0.
      0. 0. 0. 0. 0. 0. 0. 0. 0. 0. 0. 0. 0. 0. 0. 0. 0. 0. 0. 0. 0. 0.
      0. 0. 0. 0. 0. 0. 0. 0. 0. 0. 0. 0. 0. 0. 0. 0. 0. 0. 0. 0. 0. 0.
      0. 0. 0. 0. 0. 0. 0. 0. 0. 0. 0. 0. 0. 0. 0. 0. 0. 0. 0. 0. 0. 0.
      0. 0. 0. 0. 0. 0. 0. 0. 0. 0. 0. 0. 0. 0. 0. 0. 0. 0. 0. 0. 0. 0.
      0. 0. 0. 0. 0. 0. 0. 0. 0. 0. 0. 0. 0. 0. 0. 0. 0. 0. 0. 0. 0. 0.
      0. 0. 0. 0. 0. 0. 0. 0. 0. 0. 0. 0. 0. 0. 0. 0. 0. 0. 0. 0. 0. 0.
      0. 0. 0. 0. 0. 0. 0. 0. 0. 0. 0. 0. 0. 0. 0. 0. 0. 0. 0. 0. 0. 0.
      0. 0. 0. 0. 0. 0. 0. 0. 0. 0. 0. 0. 0. 0. 0. 0. 0. 0.
      5.14285736e+01 0. 0. 0. 0. 0. 0. 0. 0. 0. 0. 0. 0. 0. 0. 0. 0. 0.
      0. 0. 0. 0. 0. 0. 0. 0. 0. 0. 0. 0. 0. 0. 0. 0. 0. 0. 0. 0. 0. 0.
      0. 0. 0. 0. 0. 0. 0. 0. 0. 0. 0. 0. 0. 0. 0. 0. 0. 0. 0. 0. 0. 0.
      0. 0. 0. 0. 0. 0. 0. 0. 0. 0. 0. 0. 0. 0. 0. 0. 0. 0. 0. 0. 0. 0.
      0. 0. 0. 0. 0. 0. 0. 0. 0. 0. 0. 0. 0. 0. 0. 0. 0. 0. 0. 0. 0. 0.
      0. 0. 0. 0. 0. 0. 0. 0. 0. 0. 0. 0. 0. 0. 0. 0. 0. 0. 0. 0. 0. 0.
      0. 0. 0. 0. 0. 0. 0. 0. 0. 0. 0. 0. 0. 0. 0. 0. 0. 0. 0. 0. 0. 0.
      0. 0. 0. 0. 0. 0. 0. 0. 0. 0. 0. 0. 0. 0. 0. 0. 0. 0. 0. 0. 0. 0.
      0. 0. 0. 0. 0. 0. 0. 0. 0. 0. 0. 0. 0. 0. 0. 0. 0. 0. 0. 0. 0. 0.
      0. 0. 0. 0. 0. 0. 0. 0. 0. 0. 0. 0. 0. 0. 0. 0. 0. 0. 0. 0. 0. 0.
      0. 0. 0. 0. 0. 0. 0. 0. 0. 0. 0. 0. 0. 0. 0. 0. 0. 0. 0. 0. 0. 0.
      0. 0. 0. 0. 0. 0. 0. 0. 0. 0. 0. 0. 0. 0. 0. 0. 0. 0. 0. 0. 0. 0.
      0. 0. 0. 0. 0. 0. 0. 0. 0. 0. 0. 0. 0. 0. 0. 0. 0. 0. 0. 0. 0. 0.
      0. 0. 0. 0. 0. 0. 0. 0. 0. 0. 0. 0. 0. 0. 0. 0. 0. 0. 0. 0. 0. 0.
      0. 0. 0. 0. 0. 0. 0. 0. 0. 0. 0. 0. 0. 0. 0. 0. 0. 0. 0. 0. 0. 0.
      0. 0. 0. 0. 0. 0. 0. 0. 0. 0. 0. 0. 0. 0. 0. 0. 0. 0. 0. 0. 0. 0.
      0. 0. 0. 0. 0. 0. 0. 0. 0. 0. 0. 0. 0. 0. 0. 0. 0. 0. 0. 0. 0. 0.
      0. 0. 0. 0. 0. 0. 0. 0. 0. 0. 0. 0. 0. 0. 0. 0. 0. 0. 0. 0. 0. 0.
      0. 0. 0. 0. 0. 0. 0. 0. 0. 0. 0. 0. 0. 0. 0. 0. 0. 0. 0. 0. 0. 0.
      0. 4.76190494e-03 9.52380989e-03 0. 9.52380989e-03 9.52380989e-03
      1.90476198e-02 1.42857153e-02 1.90476198e-02 3.80952395e-02
      1.90476198e-02 2.85714306e-02 3.80952395e-02 6.19047657e-02
      2.85714306e-02 2.85714306e-02 4.28571440e-02 4.28571440e-02
      3.33333351e-02 6.19047657e-02 4.28571440e-02 5.23809530e-02
      5.23809530e-02 4.76190485e-02 5.23809530e-02 8.09523836e-02
      6.66666701e-02 4.28571440e-02 7.61904791e-02 6.19047657e-02
      3.33333351e-02 2.38095243e-02 3.80952395e-02 4.28571440e-02
      2.85714306e-02 4.28571440e-02 3.80952395e-02 4.76190485e-02
      7.14285746e-02 4.28571440e-02 4.28571440e-02 6.19047657e-02
      4.28571440e-02 5.23809530e-02 6.66666701e-02 3.80952395e-02
      6.66666701e-02 2.85714306e-02 6.66666701e-02 5.71428612e-02
      3.80952395e-02 2.85714306e-02 4.76190485e-02 2.38095243e-02
      1.42857153e-02 1.90476198e-02 2.38095243e-02 1.90476198e-02
      6.66666701e-02 1.42857153e-02 1.90476198e-02 2.38095243e-02
      3.80952395e-02 2.38095243e-02 5.71428612e-02 2.85714306e-02
      2.85714306e-02 3.80952395e-02 4.28571440e-02 3.33333351e-02
      3.33333351e-02 4.28571440e-02 4.28571440e-02 3.80952395e-02
      4.28571440e-02 6.66666701e-02 5.23809530e-02 3.80952395e-02
      1.00000001e-01 4.04761910e-01 1.14285722e-01 9.04761925e-02
      9.04761925e-02 9.04761925e-02 1.28571436e-01 1.90476194e-01
      1.95238099e-01 2.76190490e-01 3.76190484e-01 7.71428585e-01
      5.80952406e-01 1.16190481e+00 3.95952377e+01 1.41428578e+00
      5.61904788e-01 1.10000002e+00 3.76190484e-01 8.04761946e-01</_>
    <_>
      1.30099152e+02 0. 0. 0. 0. 0. 0. 0. 0. 0. 0. 0. 0. 0. 0. 0. 0. 0.
      0. 0. 0. 0. 0. 0. 0. 0. 0. 0. 0. 0. 0. 0. 0. 0. 0. 0. 0. 0. 0. 0.
      0. 0. 0. 0. 0. 0. 0. 0. 0. 0. 0. 0. 0. 0. 0. 0. 0. 0. 0. 0. 0. 0.
      0. 0. 0. 0. 0. 0. 0. 0. 0. 0. 0. 0. 0. 0. 0. 0. 0. 0. 0. 0. 0. 0.
      0. 0. 0. 0. 0. 0. 1.64102569e-01 0. 0. 0. 0. 0. 0. 0. 0. 0. 0. 0.
      0. 0. 0. 0. 0. 0. 0. 0. 0. 0. 0. 0. 0. 0. 0. 0. 0. 0. 0. 0. 0. 0.
      0. 0. 0. 0. 0. 0. 0. 0. 0. 0. 0. 0. 0. 0. 0. 0. 0. 0. 0. 0. 0. 0.
      0. 0. 0. 0. 2.65299153e+00 0. 0. 0. 0. 0. 0. 0. 0. 0. 0. 0. 0. 0.
      0. 8.72478676e+00 0. 0. 0. 0. 1.53846154e-02 0. 0. 1.50598288e+00
      0. 0. 0. 0. 0. 0. 0. 0. 0. 0. 0. 0. 0. 0. 0. 0. 0. 0. 0. 0. 0. 0.
      0. 0. 0. 0. 0. 0. 0. 0. 0. 0. 0. 0. 0. 0. 0. 0. 0. 0. 0. 0. 0. 0.
      0. 0. 0. 0. 0. 0. 0. 0. 0. 0. 0. 0. 0. 0. 0. 0. 0. 0. 0. 0. 0. 0.
      0. 0. 0. 0. 0. 0. 0. 0. 0. 0. 0. 0. 0. 0. 0. 0. 1.30092316e+02
      2.81709409e+00 3.10256410e+00 9.43589747e-01 9.00854707e-01
      6.54700875e-01 4.46153849e-01 3.11111122e-01 2.15384617e-01
      2.08547011e-01 1.77777782e-01 1.79487184e-01 1.70940176e-01
      1.94871798e-01 1.82905987e-01 3.00854713e-01 2.00000003e-01
      8.71794894e-02 2.01709405e-01 1.09401710e-01 1.72649577e-01
      8.71794894e-02 9.05982926e-02 8.03418830e-02 8.88888910e-02
      2.39316244e-02 1.04273506e-01 7.52136782e-02 1.38461545e-01
      4.27350439e-02 8.54700878e-02 3.76068391e-02 1.05982907e-01
      3.76068391e-02 5.81196584e-02 4.44444455e-02 5.12820520e-02 0.
      2.39316244e-02 5.29914536e-02 0. 1.53846154e-02 0. 2.90598292e-02
      1.88034195e-02 0. 2.90598292e-02 0. 0. 8.54700897e-03 0.
      2.90598292e-02 0. 0. 1.36752138e-02 0. 0. 2.39316244e-02 0. 0.
      6.83760690e-03 0. 0. 0. 1.36752138e-02 0. 0. 0. 8.54700897e-03 0.
      0. 0. 0. 1.36752138e-02 0. 0. 0. 0. 5.12820529e-03 0. 0. 0. 0. 0.
      0. 1.02564106e-02 0. 0. 0. 0. 0. 0. 0. 5.12820529e-03 0. 0. 0. 0.
      0. 0. 0. 0. 6.83760690e-03 0. 0. 0. 0. 0. 0. 0. 0. 0. 0.
      3.41880345e-03 0. 0. 0. 0. 0. 0. 0. 0. 0. 0. 0. 0. 0. 0.
      3.41880345e-03 0. 0. 0. 0. 0. 0. 0. 0. 0. 0. 0. 0. 0. 0. 0. 0. 0.
      0. 0. 0. 0. 0. 0. 0. 0. 0. 0. 0. 0. 0. 0. 0. 0. 0. 0. 0. 0. 0. 0.
      0. 0. 6.83760690e-03 0. 0. 0. 0. 0. 0. 0. 0. 0. 0. 0. 0. 0. 0. 0.
      0. 0. 0. 0. 0. 0. 0. 0. 0. 0. 0. 0. 0. 0. 0. 0. 0. 0. 0. 0. 0. 0.
      0. 0. 0. 0. 0. 0. 0. 0. 0. 0. 0. 0. 0. 0. 0. 0. 0. 0. 0. 0. 0. 0.
      0. 0. 0. 0. 0. 0. 0. 0. 0. 0. 0. 0. 0. 0. 0. 0. 0. 0. 0. 0. 0. 0.
      0. 0. 0. 1.19658122e-02 1.37435901e+00 2.30769232e-01
      1.86324790e-01 1.86324790e-01 1.57264963e-01 1.64102569e-01
      1.16239317e-01 1.21367522e-01 7.52136782e-02 1.21367522e-01
      8.54700878e-02 1.00854702e-01 7.17948750e-02 8.37606862e-02
      9.74358991e-02 9.23076943e-02 1.05982907e-01 9.74358991e-02
      1.31623939e-01 1.19658120e-01 1.26495734e-01 1.35042742e-01
      1.35042742e-01 1.53846160e-01 1.55555561e-01 1.45299152e-01
      1.72649577e-01 2.13675216e-01 2.23931625e-01 2.90598303e-01
      1.77777782e-01 2.17094019e-01 2.34188035e-01 2.37606838e-01
      1.96581200e-01 2.44444445e-01 2.00000003e-01 1.77777782e-01
      1.26495734e-01 1.23076923e-01 1.29914537e-01 1.26495734e-01
      9.57264975e-02 9.40170959e-02 7.52136782e-02 7.86324814e-02
      8.54700878e-02 7.35042766e-02 7.00854734e-02 6.15384616e-02
      8.54700878e-02 7.69230798e-02 5.64102568e-02 5.64102568e-02
      6.32478669e-02 7.17948750e-02 5.98290600e-02 4.78632487e-02
      8.71794894e-02 6.32478669e-02 6.83760718e-02 6.83760718e-02
      6.83760718e-02 8.37606862e-02 8.71794894e-02 7.86324814e-02
      6.32478669e-02 6.15384616e-02 3.04273516e-01 7.69230798e-02
      6.83760718e-02 4.95726503e-02 6.66666701e-02 7.52136782e-02
      4.10256423e-02 6.15384616e-02 6.83760718e-02 6.49572685e-02
      7.69230798e-02 5.47008552e-02 6.32478669e-02 5.12820520e-02
      5.29914536e-02 6.66666701e-02 5.81196584e-02 7.17948750e-02
      8.54700878e-02 6.83760718e-02 3.93162407e-02 5.81196584e-02
      4.95726503e-02 5.64102568e-02 6.32478669e-02 5.98290600e-02
      7.86324814e-02 5.81196584e-02 7.86324814e-02 5.64102568e-02
      4.95726503e-02 4.95726503e-02 7.52136782e-02 4.61538471e-02
      4.78632487e-02 6.15384616e-02 5.98290600e-02 6.15384616e-02
      5.81196584e-02 7.00854734e-02 8.54700878e-02 5.29914536e-02
      7.35042766e-02 8.54700878e-02 7.35042766e-02 4.95726503e-02
      4.78632487e-02 4.27350439e-02 4.78632487e-02 3.93162407e-02
      4.44444455e-02 5.12820520e-02 4.78632487e-02 3.93162407e-02
      3.93162407e-02 3.93162407e-02 5.64102568e-02 6.32478669e-02
      5.29914536e-02 6.49572685e-02 5.98290600e-02 4.10256423e-02
      4.95726503e-02 4.44444455e-02 5.81196584e-02 5.29914536e-02
      5.29914536e-02 5.81196584e-02 6.32478669e-02 4.95726503e-02
      5.98290600e-02 7.17948750e-02 6.83760718e-02 6.66666701e-02
      6.83760718e-02 6.15384616e-02 5.64102568e-02 4.61538471e-02
      7.69230798e-02 8.03418830e-02 6.15384616e-02 5.12820520e-02
      5.12820520e-02 3.93162407e-02 4.27350439e-02 5.29914536e-02
      4.78632487e-02 4.27350439e-02 5.64102568e-02 4.10256423e-02
      2.83760697e-01 5.98290600e-02 4.27350439e-02 3.76068391e-02
      4.78632487e-02 2.90598292e-02 2.56410260e-02 2.90598292e-02
      3.58974375e-02 3.76068391e-02 4.61538471e-02 3.76068391e-02
      5.12820520e-02 4.78632487e-02 3.58974375e-02 8.20512846e-02
      5.98290600e-02 4.78632487e-02 6.49572685e-02 7.86324814e-02
      3.76068391e-02 3.24786343e-02 3.24786343e-02 4.44444455e-02
      5.81196584e-02 5.12820520e-02 4.78632487e-02 2.90598292e-02
      3.24786343e-02 3.93162407e-02 5.29914536e-02 4.95726503e-02
      4.10256423e-02 6.32478669e-02 6.66666701e-02 4.44444455e-02
      3.93162407e-02 5.98290600e-02 6.15384616e-02 8.88888910e-02
      8.03418830e-02 4.10256423e-02 4.61538471e-02 1.53846160e-01
      9.91453007e-02 1.36752144e-01 5.64102568e-02 4.61538471e-02
      6.32478669e-02 5.64102568e-02 6.83760718e-02 5.64102568e-02
      7.86324814e-02 7.17948750e-02 7.17948750e-02 7.00854734e-02
      4.95726503e-02 7.35042766e-02 8.71794894e-02 7.35042766e-02
      7.00854734e-02 5.64102568e-02 6.83760718e-02 7.86324814e-02
      5.81196584e-02 7.52136782e-02 7.86324814e-02 1.00854702e-01
      3.35042745e-01 9.23076943e-02 8.03418830e-02 7.35042766e-02
      8.20512846e-02 8.37606862e-02 9.05982926e-02 8.37606862e-02
      1.07692309e-01 1.05982907e-01 9.40170959e-02 1.00854702e-01
      9.23076943e-02 1.31623939e-01 1.53846160e-01 1.82905987e-01
      2.03418806e-01 2.47863248e-01 2.58119673e-01 3.48717958e-01
      3.98290604e-01 5.76068401e-01 7.36752152e-01 8.10256422e-01
      9.47008550e-01 1.14188039e+00 1.58974361e+00 1.67692304e+00
      2.48034191e+00 1.10615387e+02</_>
    <_>
      3.39033890e+01 0. 0. 0. 0. 0. 0. 0. 0. 0. 0. 0. 0. 0. 0. 0. 0. 0.
      0. 0. 0. 0. 0. 0. 0. 0. 0. 0. 0. 0. 0. 0. 0. 0. 0. 0. 0. 0. 0. 0.
      0. 0. 0. 0. 0. 0. 0. 0. 0. 0. 0. 0. 0. 0. 0. 0. 0. 0. 0. 0. 0. 0.
      0. 0. 0. 0. 0. 0. 0. 0. 0. 0. 0. 0. 0. 0. 0. 0. 0. 0. 0. 0. 0. 0.
      0. 0. 0. 0. 0. 0. 0. 0. 0. 0. 0. 0. 0. 0. 0. 0. 0. 0. 0. 0. 0. 0.
      0. 0. 0. 0. 0. 0. 0. 0. 0. 0. 0. 0. 0. 0. 1.16288137e+01 0. 0. 0.
      0. 0. 0. 0. 0. 0. 0. 0. 3.10169488e-01 0. 0. 0. 0. 0. 0. 0.
      7.05305099e+01 0. 0. 0. 0. 2.44067788e-01 0. 0. 0. 0.
      4.35593218e-01 0. 0. 0. 0. 0. 1.76661015e+01 0. 0. 0.
      2.98305094e-01 0. 0. 0. 0. 9.11864376e+00 0. 0. 0. 0. 0. 0. 0.
      2.30508471e+00 0. 0. 0. 0. 0. 0. 0. 0. 0. 0. 0. 0. 0. 0. 0. 0. 0.
      0. 0. 0. 0. 0. 0. 0. 0. 0. 0. 0. 0. 0. 0. 0. 0. 0. 0. 0. 0. 0. 0.
      0. 0. 0. 0. 0. 0. 0. 0. 0. 0. 0. 0. 0. 0. 0. 0. 0. 0. 0. 0. 0. 0.
      0. 0. 0. 0. 0. 0. 0. 0. 0. 0. 0. 0. 0. 0. 0. 0. 0. 0. 0. 0. 0.
      3.39033890e+01 3.44067782e-01 2.04830513e+01 6.84610138e+01
      4.66271162e+00 1.74440670e+01 1.08813560e+00 2.71186437e-02
      2.71186437e-02 0. 0. 0. 0. 0. 0. 0. 0. 0. 0. 0. 0. 0. 0. 0. 0. 0.
      0. 0. 0. 0. 0. 0. 0. 0. 0. 0. 0. 0. 0. 0. 0. 0. 0. 0. 0. 0. 0. 0.
      0. 0. 0. 0. 0. 0. 0. 0. 0. 0. 0. 0. 0. 0. 0. 0. 0. 0. 0. 0. 0. 0.
      0. 0. 0. 0. 0. 0. 0. 0. 0. 0. 0. 0. 0. 0. 0. 0. 0. 0. 0. 0. 0. 0.
      0. 0. 0. 0. 0. 0. 0. 0. 0. 0. 0. 0. 0. 0. 0. 0. 0. 0. 0. 0. 0. 0.
      0. 0. 0. 0. 0. 0. 0. 0. 0. 0. 0. 0. 0. 0. 0. 0. 0. 0. 0. 0. 0. 0.
      0. 0. 0. 0. 0. 0. 0. 0. 0. 0. 0. 0. 0. 0. 0. 0. 0. 0. 0. 0. 0. 0.
      0. 0. 0. 0. 0. 0. 0. 0. 0. 0. 0. 0. 0. 0. 0. 0. 0. 0. 0. 0. 0. 0.
      0. 0. 0. 0. 0. 0. 0. 0. 0. 0. 0. 0. 0. 0. 0. 0. 0. 0. 0. 0. 0. 0.
      0. 0. 0. 0. 0. 0. 0. 0. 0. 0. 0. 0. 0. 0. 0. 0. 0. 0. 0. 0. 0. 0.
      0. 0. 0. 0. 0. 0. 0. 0. 0. 0. 0. 0. 0. 0. 0. 0. 0. 0. 0. 0. 0. 0.
      0. 0. 0. 0. 0. 0. 0. 0. 0. 0. 0. 0. 0. 0. 0. 0. 0. 0. 0. 0. 0. 0.
      0. 0. 0. 0. 0. 0. 0. 0. 0. 0. 0. 0. 0. 0. 0. 0. 0. 0. 0. 0. 0. 0.
      0. 0. 0. 0. 0. 0. 0. 0. 0. 0. 0. 0. 0. 0. 0. 0. 0. 0. 0. 0. 0. 0.
      0. 0. 0. 0. 0. 0. 0. 0. 0. 0. 0. 0. 0. 0. 0. 0. 0. 0. 0. 0. 0. 0.
      0. 0. 0. 0. 0. 0. 0. 0. 0. 0. 0. 0. 0. 0. 0. 0. 0. 0. 0. 0. 0. 0.
      0. 0. 0. 0. 0. 0. 0. 0. 0. 0. 0. 0. 0. 0. 0. 0. 0. 0. 0. 0. 0. 0.
      0. 0. 0. 0. 0. 0. 0. 0. 0. 0. 0. 0. 0. 0. 0. 0. 0. 0. 0. 0. 0. 0.
      0. 0. 0. 0. 0. 0. 0. 0. 0. 0. 0. 0. 0. 0. 0. 0. 0. 0. 0. 0. 0. 0.
      0. 0. 0. 3.38983047e-03 0. 1.69491523e-03 6.77966094e-03
      2.03389823e-02 3.05084735e-02 4.06779647e-02 6.44067824e-02
      8.30508471e-02 1.11864403e-01 8.64406750e-02 1.16949148e-01
      8.98305103e-02 1.10169493e-01 1.03389829e-01 6.27118647e-02
      9.49152559e-02 6.77966103e-02 9.32203382e-02 6.94915280e-02
      3.38983051e-02 5.76271191e-02 4.23728824e-02 5.25423735e-02
      4.23728824e-02 4.40677963e-02 4.23728824e-02 4.57627103e-02
      4.40677963e-02 3.55932191e-02 4.40677963e-02 5.25423735e-02
      5.76271191e-02 3.38983051e-02 4.23728824e-02 5.25423735e-02
      6.10169470e-02 5.08474559e-02 4.91525419e-02 4.40677963e-02
      4.23728824e-02 4.23728824e-02 6.27118647e-02 6.27118647e-02
      7.62711838e-02 1.03389829e-01 1.40677959e-01 1.40677959e-01
      1.66101694e-01 1.32203385e-01 1.37288138e-01 1.42372876e-01
      1.28813565e-01 1.32203385e-01 1.62711859e-01 1.94915250e-01
      1.86440676e-01 2.01694906e-01 2.38983050e-01 2.62711853e-01
      2.38983050e-01 2.49152541e-01 2.45762706e-01 2.83050835e-01
      3.64406765e-01 8.66101682e-01 1.16779661e+01 7.19322014e+00
      1.09779663e+01 1.24271183e+01 5.98305082e+00 1.03644066e+01
      5.65254211e+00 9.94745731e+00 6.49322033e+00 1.16101694e+01
      5.46271181e+00 6.13389826e+00 8.18644047e-01 2.35593215e-01
      6.94915280e-02 2.71186437e-02 5.08474559e-03 0. 0. 1.69491523e-03
      3.41677971e+01</_>
    <_>
      50. 0. 0. 0. 0. 0. 0. 0. 0. 0. 0. 0. 0. 0. 0. 0. 0. 0. 0. 0. 0. 0.
      0. 0. 0. 0. 0. 0. 0. 0. 0. 0. 0. 0. 0. 0. 0. 0. 0. 0. 0. 0. 0. 0.
      0. 0. 0. 0. 0. 0. 0. 0. 0. 0. 0. 0. 0. 0. 0. 0. 0. 0. 0. 0. 0. 0.
      0. 0. 0. 0. 0. 0. 0. 0. 0. 0. 0. 0. 0. 0. 0. 0. 0. 0. 0. 0. 0. 0.
      0. 0. 0. 0. 0. 0. 0. 0. 0. 0. 0. 0. 0. 0. 0. 0. 0. 0. 0. 0. 0. 0.
      0. 0. 0. 0. 0. 0. 0. 0. 0. 0. 0. 0. 0. 0. 0. 0. 0. 0. 0. 0. 0. 0.
      0. 0. 0. 0. 0. 0. 0. 0. 0. 0. 0. 0. 0. 0. 0. 0. 0. 0. 0. 0. 0. 0.
      0. 0. 0. 0. 0. 0. 0. 0. 0. 0. 0. 0. 0. 0. 0. 0. 0. 0. 0. 0. 0. 0.
      0. 0. 0. 0. 0. 0. 0. 0. 0. 0. 0. 0. 0. 0. 0. 0. 0. 0. 0. 0. 0. 0.
      0. 0. 0. 0. 0. 0. 0. 0. 0. 0. 0. 0. 0. 0. 0. 0. 0. 0. 0. 0. 0. 0.
      0. 0. 0. 0. 0. 0. 0. 0. 0. 0. 0. 0. 0. 0. 0. 0. 0. 0. 0. 0. 0. 0.
      0. 0. 0. 0. 0. 0. 0. 0. 0. 0. 0. 0. 0. 0. 50. 0. 0. 0. 0. 0. 0. 0.
      0. 0. 0. 0. 0. 0. 0. 0. 0. 0. 0. 0. 0. 0. 0. 0. 0. 0. 0. 0. 0. 0.
      0. 0. 0. 0. 0. 0. 0. 0. 0. 0. 0. 0. 0. 0. 0. 0. 0. 0. 0. 0. 0. 0.
      0. 0. 0. 0. 0. 0. 0. 0. 0. 0. 0. 0. 0. 0. 0. 0. 0. 0. 0. 0. 0. 0.
      0. 0. 0. 0. 0. 0. 0. 0. 0. 0. 0. 0. 0. 0. 0. 0. 0. 0. 0. 0. 0. 0.
      0. 0. 0. 0. 0. 0. 0. 0. 0. 0. 0. 0. 0. 0. 0. 0. 0. 0. 0. 0. 0. 0.
      0. 0. 0. 0. 0. 0. 0. 0. 0. 0. 0. 0. 0. 0. 0. 0. 0. 0. 0. 0. 0. 0.
      0. 0. 0. 0. 0. 0. 0. 0. 0. 0. 0. 0. 0. 0. 0. 0. 0. 0. 0. 0. 0. 0.
      0. 0. 0. 0. 0. 0. 0. 0. 0. 0. 0. 0. 0. 0. 0. 0. 0. 0. 0. 0. 0. 0.
      0. 0. 0. 0. 0. 0. 0. 0. 0. 0. 0. 0. 0. 0. 0. 0. 0. 0. 0. 0. 0. 0.
      0. 0. 0. 0. 0. 0. 0. 0. 0. 0. 0. 0. 0. 0. 0. 0. 0. 0. 0. 0. 0. 0.
      0. 0. 0. 0. 0. 0. 0. 0. 0. 0. 0. 0. 0. 0. 0. 0. 0. 0. 0. 0. 0. 0.
      0. 0. 0. 0. 0. 0. 0. 0. 0. 0. 0. 0. 0. 0. 0. 0. 0. 0. 0. 0. 0. 0.
      0. 0. 0. 0. 0. 0. 0. 0. 0. 0. 0. 0. 0. 0. 0. 0. 0. 0. 0. 0. 0. 0.
      0. 0. 0. 0. 0. 0. 0. 0. 0. 0. 0. 0. 0. 0. 0. 0. 0. 0. 0. 0. 0. 0.
      0. 0. 0. 0. 0. 0. 0. 0. 0. 0. 0. 0. 0. 0. 0. 0. 0. 0. 0. 0. 0. 0.
      0. 0. 0. 0. 0. 0. 0. 0. 0. 0. 0. 0. 0. 0. 0. 0. 0. 0. 0. 0. 0. 0.
      0. 0. 0. 0. 0. 0. 0. 0. 0. 0. 0. 0. 0. 0. 0. 0. 0. 0. 0. 0. 0. 0.
      0. 0. 0. 0. 0. 0. 0. 0. 0. 0. 0. 0. 0. 0. 0. 0. 0. 0. 0. 0. 0. 0.
      0. 0. 0. 0. 0. 0. 0. 0. 0. 0. 0. 0. 0. 0. 0. 0. 0. 0. 0. 0. 0. 0.
      0. 0. 0. 0. 0. 0. 0. 0. 0. 3.50000001e-02 0. 9.99999978e-03
      4.99999989e-03 5.99999987e-02 4.99999970e-02 1.99999996e-02
      5.99999987e-02 4.99999989e-03 4.99999989e-03 1.99999996e-02
      2.49999985e-02 3.99999991e-02 1.49999997e-02 1.49999997e-02
      3.99999991e-02 3.99999991e-02 2.99999993e-02 3.50000001e-02
      1.99999996e-02 3.50000001e-02 2.99999993e-02 9.99999978e-03
      3.99999991e-02 2.99999993e-02 4.49999981e-02 3.99999991e-02
      7.00000003e-02 5.49999997e-02 3.50000001e-02 2.49999985e-02
      6.25000000e-01 1.64999992e-01 1.40000001e-01 1.29999995e-01
      2.75000006e-01 4.09999996e-01 1.79999992e-01 1.74999997e-01
      1.59999996e-01 2.44999990e-01 1.44999996e-01 1.70000002e-01
      1.99999988e-01 6.20000005e-01 8.50000009e-02 5.99999987e-02
      4.99999970e-02 7.00000003e-02 7.99999982e-02 6.49999976e-02
      1.34999990e-01 6.49999976e-02 2.99999993e-02 2.99999993e-02
      2.49999985e-02 9.99999940e-02 8.50000009e-02 5.49999997e-02
      1.02999997e+00 2.02499986e+00 2.03499985e+00 2.01999998e+00
      1.54999995e+00 1.50000000e+00 1.53999996e+00 1.54999995e+00
      1.50000000e+00 1.48000002e+00 8.34999979e-01 9.09999967e-01
      9.14999962e-01 1.37500000e+00 1.47500002e+00 1.95999992e+00
      1.59499991e+00 1.91849995e+01</_>
    <_>
      90. 0. 0. 0. 0. 0. 0. 0. 0. 0. 0. 0. 0. 0. 0. 0. 0. 0. 0. 0. 0. 0.
      0. 0. 0. 0. 0. 0. 0. 0. 0. 0. 0. 0. 0. 0. 0. 0. 0. 0. 0. 0. 0. 0.
      0. 0. 0. 0. 0. 0. 0. 0. 0. 0. 0. 0. 0. 0. 0. 0. 0. 0. 0. 0. 0. 0.
      0. 0. 0. 0. 0. 0. 0. 0. 0. 0. 0. 0. 0. 0. 0. 0. 0. 0. 0. 0. 0. 0.
      0. 0. 0. 0. 0. 0. 0. 0. 0. 0. 0. 0. 0. 0. 0. 0. 0. 0. 0. 0. 0. 0.
      0. 0. 0. 0. 0. 0. 0. 0. 0. 0. 0. 0. 0. 0. 0. 0. 0. 0. 0. 0. 0. 0.
      0. 0. 0. 0. 0. 0. 0. 0. 0. 0. 0. 0. 0. 0. 0. 0. 0. 0. 0. 0. 0. 0.
      0. 0. 0. 0. 0. 0. 0. 0. 0. 0. 0. 0. 0. 0. 0. 0. 0. 0. 0. 0. 0. 0.
      0. 0. 0. 0. 0. 0. 0. 0. 0. 0. 0. 0. 0. 0. 0. 0. 0. 0. 0. 0. 0. 0.
      0. 0. 0. 0. 0. 0. 0. 0. 0. 0. 0. 0. 0. 0. 0. 0. 0. 0. 0. 0. 0. 0.
      0. 0. 0. 0. 0. 0. 0. 0. 0. 0. 0. 0. 0. 0. 0. 0. 0. 0. 0. 0. 0. 0.
      0. 0. 0. 0. 0. 0. 0. 0. 0. 0. 0. 0. 0. 0. 90. 0. 0. 0. 0. 0. 0. 0.
      0. 0. 0. 0. 0. 0. 0. 0. 0. 0. 0. 0. 0. 0. 0. 0. 0. 0. 0. 0. 0. 0.
      0. 0. 0. 0. 0. 0. 0. 0. 0. 0. 0. 0. 0. 0. 0. 0. 0. 0. 0. 0. 0. 0.
      0. 0. 0. 0. 0. 0. 0. 0. 0. 0. 0. 0. 0. 0. 0. 0. 0. 0. 0. 0. 0. 0.
      0. 0. 0. 0. 0. 0. 0. 0. 0. 0. 0. 0. 0. 0. 0. 0. 0. 0. 0. 0. 0. 0.
      0. 0. 0. 0. 0. 0. 0. 0. 0. 0. 0. 0. 0. 0. 0. 0. 0. 0. 0. 0. 0. 0.
      0. 0. 0. 0. 0. 0. 0. 0. 0. 0. 0. 0. 0. 0. 0. 0. 0. 0. 0. 0. 0. 0.
      0. 0. 0. 0. 0. 0. 0. 0. 0. 0. 0. 0. 0. 0. 0. 0. 0. 0. 0. 0. 0. 0.
      0. 0. 0. 0. 0. 0. 0. 0. 0. 0. 0. 0. 0. 0. 0. 0. 0. 0. 0. 0. 0. 0.
      0. 0. 0. 0. 0. 0. 0. 0. 0. 0. 0. 0. 0. 0. 0. 0. 0. 0. 0. 0. 0. 0.
      0. 0. 0. 0. 0. 0. 0. 0. 0. 0. 0. 0. 0. 0. 0. 0. 0. 0. 0. 0. 0. 0.
      0. 0. 0. 0. 0. 0. 0. 0. 0. 0. 0. 0. 0. 0. 0. 0. 0. 0. 0. 0. 0. 0.
      0. 0. 0. 0. 0. 0. 0. 0. 0. 0. 0. 0. 0. 0. 0. 0. 0. 0. 0. 0. 0. 0.
      0. 0. 0. 0. 0. 0. 0. 0. 0. 0. 0. 0. 0. 0. 0. 0. 0. 0. 0. 0. 0. 0.
      0. 0. 0. 0. 0. 0. 0. 0. 0. 0. 0. 0. 0. 0. 0. 0. 0. 0. 0. 0. 0. 0.
      0. 0. 0. 0. 0. 0. 0. 0. 0. 0. 0. 0. 0. 0. 0. 0. 0. 0. 0. 0. 0. 0.
      0. 0. 0. 0. 0. 0. 0. 0. 0. 0. 0. 0. 0. 0. 0. 0. 2.77777785e-03 0.
      0. 0. 0. 0. 0. 0. 0. 0. 0. 0. 0. 2.77777785e-03 0. 0. 0. 0. 0. 0.
      0. 0. 0. 0. 0. 0. 2.77777785e-03 0. 0. 0. 0. 0. 0. 5.55555569e-03
      0. 5.55555569e-03 2.77777785e-03 0. 0. 1.66666675e-02 0.
      2.77777785e-03 0. 8.33333377e-03 2.77777785e-03 1.11111114e-02 0.
      0. 2.77777785e-03 1.11111114e-02 8.33333377e-03 2.77777785e-03
      2.77777785e-03 2.77777785e-03 1.11111114e-02 1.66666675e-02 0.
      8.33333377e-03 5.55555569e-03 1.11111114e-02 2.22222228e-02
      1.38888890e-02 1.94444451e-02 8.33333377e-03 1.66666675e-02
      2.50000004e-02 3.05555556e-02 4.44444455e-02 6.38888925e-02
      7.77777806e-02 7.50000030e-02 8.05555582e-02 8.33333358e-02
      1.00000001e-01 8.88888910e-02 1.11111112e-01 1.16666667e-01
      1.36111110e-01 1.55555561e-01 1.00000001e-01 1.00000001e-01
      1.11111112e-01 9.16666687e-02 8.88888910e-02 7.22222254e-02
      1.00000001e-01 5.55555560e-02 8.05555582e-02 5.55555560e-02
      6.38888925e-02 5.83333336e-02 7.77777806e-02 6.66666701e-02
      5.55555560e-02 1.38888890e-02 2.22222228e-02 4.44444455e-02
      3.05555556e-02 2.77777780e-02 2.22222228e-02 3.05555556e-02
      3.05555556e-02 3.61111127e-02 5.00000007e-02 2.22222228e-02
      2.22222228e-02 3.05555556e-02 3.88888903e-02 4.72222231e-02
      4.16666679e-02 3.33333351e-02 2.77777780e-02 4.16666679e-02
      1.38888890e-02 1.94444451e-02 2.77777780e-02 3.61111127e-02
      2.77777780e-02 3.88888903e-02 5.27777784e-02 2.77777780e-02
      4.16666679e-02 4.16666679e-02 5.00000007e-02 5.83333336e-02
      7.77777806e-02 1.16666667e-01 1.86111122e-01 2.33333334e-01
      3.11111122e-01 4.00000006e-01 3.47222239e-01 3.41666669e-01
      4.36111122e-01 4.83333349e-01 5.27777791e-01 6.27777815e-01
      5.30555546e-01 4.88888890e-01 5.74999988e-01 6.80555582e-01
      7.08333373e-01 9.41666663e-01 9.91666675e-01 1.09444451e+00
      9.97222245e-01 9.36111152e-01 8.77777815e-01 7.97222257e-01
      8.38888884e-01 7.38888919e-01 7.11111128e-01 7.97222257e-01
      9.94444489e-01 1.32500005e+00 1.87777781e+00 2.75277781e+00
      6.26111145e+01</_>
    <_>
      1.94400001e+00 7.99999982e-02 1.32571429e-01 1.55428573e-01
      1.54285714e-01 3.16571414e-01 3.24571431e-01 2.12571427e-01
      5.68000019e-01 6.62857115e-01 9.30285692e-01 1.63657141e+00
      1.95200002e+00 2.73485708e+00 2.64342856e+00 2.95542860e+00
      2.93028569e+00 3.23542857e+00 3.40799999e+00 4.09599972e+00
      5.49142838e+00 5.93942833e+00 6.35085726e+00 6.50857115e+00
      8.88914299e+00 9.06171417e+00 9.62742805e+00 6.84342861e+00
      5.89485693e+00 4.88914299e+00 7.85485697e+00 3.99085712e+00
      3.83542848e+00 3.94857144e+00 3.46399999e+00 5.45942831e+00
      2.64571428e+00 1.75199997e+00 1.70971429e+00 1.18971431e+00
      1.44114280e+00 4.84571427e-01 1.56685710e+00 1.61942852e+00
      2.18285710e-01 5.45142829e-01 5.01714289e-01 5.82857132e-02
      7.15428591e-01 1.01714283e-01 1.21142852e+00 6.81142867e-01
      2.68571436e-01 5.71428575e-02 1.39428571e-01 7.06285715e-01
      3.45142841e-01 1.32571429e-01 4.57142852e-02 1.71428565e-02
      4.17142838e-01 6.85714278e-03 7.88571388e-02 1.75999999e-01
      2.17142850e-02 9.82857123e-02 1.05714285e+00 9.37142819e-02
      1.29142851e-01 1.77142859e-01 4.73142862e-01 1.33714288e-01
      8.34285691e-02 3.24571431e-01 3.63428563e-01 1.21599996e+00
      2.51428574e-01 2.87999988e-01 3.15428555e-01 2.29714289e-01
      1.61599994e+00 1.72571421e-01 6.62857115e-01 1.02171433e+00
      1.18057144e+00 1.02399993e+00 6.13714278e-01 1.65257144e+00
      8.98285687e-01 1.10399997e+00 1.74057138e+00 1.29142857e+00
      1.58399999e+00 1.32571423e+00 2.00342846e+00 2.32800007e+00
      2.67885709e+00 1.00914288e+00 2.73485708e+00 1.62285709e+00
      1.63999999e+00 2.98971415e+00 1.67314279e+00 2.90057135e+00
      1.58057141e+00 2.26628566e+00 2.00571418e+00 2.09714293e+00
      1.24457145e+00 2.05942845e+00 2.23771429e+00 1.69371426e+00
      1.55657136e+00 6.07999980e-01 1.13142860e+00 4.44571435e-01
      6.25142872e-01 1.09714285e-01 1.25714287e-01 1.11999996e-01
      7.06285715e-01 1.59999989e-02 1.15428567e-01 4.80000004e-02
      1.21142857e-01 2.66285717e-01 1.84000000e-01 2.51428559e-02
      5.82857132e-02 2.97142863e-02 5.94285727e-02 6.85714278e-03
      9.37142819e-02 9.82857123e-02 5.71428565e-03 1.71428565e-02
      2.40000002e-02 1.14285713e-03 5.94285727e-02 7.99999945e-03
      1.47428572e-01 5.37142865e-02 2.74285711e-02 1.02857146e-02
      1.14285713e-02 4.22857143e-02 3.88571434e-02 2.62857135e-02
      5.71428565e-03 1.14285713e-03 1.05142854e-01 1.14285713e-03
      1.25714280e-02 2.74285711e-02 0. 2.28571426e-02 7.99999982e-02
      1.71428565e-02 1.59999989e-02 3.42857130e-02 6.17142841e-02
      9.14285704e-03 1.14285713e-02 3.31428573e-02 5.82857132e-02
      2.00000003e-01 2.51428559e-02 1.48571432e-02 4.57142852e-03
      2.97142863e-02 1.63428575e-01 2.28571426e-02 9.14285704e-03
      9.94285718e-02 6.05714284e-02 3.88571434e-02 2.05714293e-02
      1.37142852e-01 3.65714282e-02 4.57142852e-02 0. 0. 0. 0. 0. 0. 0.
      0. 0. 0. 0. 0. 0. 0. 0. 0. 0. 0. 0. 0. 0. 0. 0. 0. 0. 0. 0. 0. 0.
      0. 0. 0. 0. 0. 0. 0. 0. 0. 0. 0. 0. 0. 0. 0. 0. 0. 0. 0. 0. 0. 0.
      0. 0. 0. 0. 0. 0. 0. 0. 0. 0. 0. 0. 0. 0. 0. 0. 0. 0. 0. 0. 0. 0.
      0. 0. 0. 1.71428573e+00 4.45714295e-02 7.31428564e-02
      6.05714284e-02 1.45142853e-01 1.37142852e-01 1.75999999e-01
      1.42857134e-01 1.31428570e-01 2.15999991e-01 2.67428577e-01
      2.75428563e-01 3.18857133e-01 4.12571430e-01 4.33142841e-01
      3.90857130e-01 4.10285711e-01 4.29714292e-01 5.37142873e-01
      4.46857125e-01 5.18857121e-01 5.57714283e-01 5.27999997e-01
      5.70285738e-01 5.75999975e-01 5.85142851e-01 7.33714283e-01
      7.10857153e-01 8.75428557e-01 7.10857153e-01 8.70857120e-01
      8.14857125e-01 1.01257145e+00 8.36571395e-01 1.10628569e+00
      9.20000017e-01 1.33828568e+00 7.21142828e-01 1.04685712e+00
      1.16342854e+00 1.02171433e+00 9.93142843e-01 9.12000000e-01
      1.25485718e+00 1.08571422e+00 1.08799994e+00 1.40342855e+00
      1.16342854e+00 1.15542853e+00 1.28114283e+00 1.06742859e+00
      1.63085711e+00 1.11085713e+00 1.48571432e+00 1.24228573e+00
      1.53142858e+00 1.30400002e+00 1.50171423e+00 1.51999998e+00
      1.52342856e+00 1.48914289e+00 1.67085707e+00 1.51885712e+00
      1.41600001e+00 2.00685716e+00 1.55542850e+00 1.60914278e+00
      1.70514286e+00 1.77828574e+00 1.60114288e+00 1.89257145e+00
      1.82057142e+00 1.51542854e+00 1.83542860e+00 1.68114281e+00
      1.77257144e+00 1.59200001e+00 1.76457143e+00 1.89714289e+00
      1.52914286e+00 1.77600002e+00 1.76571429e+00 1.69371426e+00
      1.88000000e+00 1.50857139e+00 2.21257138e+00 1.63885713e+00
      1.76114285e+00 1.82400000e+00 1.79657137e+00 1.90057147e+00
      1.85828567e+00 1.72571433e+00 1.69828570e+00 1.82400000e+00
      1.62285709e+00 1.85485709e+00 1.51542854e+00 1.71085715e+00
      1.63999999e+00 1.65600002e+00 1.60571432e+00 1.71885717e+00
      1.57599998e+00 1.55999994e+00 1.38171422e+00 1.68571424e+00
      1.41257143e+00 1.33142853e+00 1.57599998e+00 1.31085718e+00
      1.30971432e+00 1.29028571e+00 1.36800003e+00 1.12800002e+00
      1.16228569e+00 1.20342851e+00 1.10628569e+00 1.19999993e+00
      1.02742851e+00 1.03314281e+00 1.03314281e+00 9.78285730e-01
      9.80571389e-01 8.70857120e-01 1.02857137e+00 7.89714277e-01
      7.68000007e-01 1.05599999e+00 7.03999996e-01 7.78285682e-01
      7.12000012e-01 7.98857152e-01 6.67428553e-01 7.37142861e-01
      7.12000012e-01 6.35428548e-01 6.87999964e-01 5.92000008e-01
      6.10285699e-01 6.03428543e-01 5.95428586e-01 6.60571396e-01
      6.28571451e-01 4.93714273e-01 5.53142846e-01 5.56571424e-01
      5.43999970e-01 4.82285708e-01 5.41714251e-01 4.99428570e-01
      5.00571430e-01 4.91428554e-01 4.43428576e-01 4.77714270e-01
      4.29714292e-01 4.43428576e-01 4.16000009e-01 4.39999998e-01
      4.23999995e-01 3.78285706e-01 3.75999987e-01 3.91999990e-01
      3.81714284e-01 3.75999987e-01 3.43999982e-01 3.31428558e-01
      3.71428579e-01 3.35999995e-01 3.37142855e-01 4.61714268e-01
      3.08571428e-01 3.51999998e-01 2.89142847e-01 3.54285717e-01
      3.22285712e-01 3.59999985e-01 3.43999982e-01 2.96000004e-01
      3.35999995e-01 3.42857152e-01 3.54285717e-01 3.13142866e-01
      3.23428571e-01 3.02857131e-01 3.49714279e-01 3.45142841e-01
      3.42857152e-01 3.93142849e-01 3.46285701e-01 3.14285725e-01
      3.49714279e-01 3.56571436e-01 3.41714293e-01 3.53142858e-01
      3.71428579e-01 4.21714276e-01 4.16000009e-01 4.04571414e-01
      4.06857133e-01 4.49142843e-01 4.42285717e-01 4.35428560e-01
      4.37714279e-01 3.73714268e-01 4.41142857e-01 4.47999984e-01
      5.06285727e-01 4.66285706e-01 4.74285722e-01 5.00571430e-01
      4.83428568e-01 5.16571403e-01 5.27999997e-01 5.48571408e-01
      5.57714283e-01 4.90285695e-01 5.17714262e-01 5.00571430e-01
      5.24571419e-01 5.61142862e-01 5.55428565e-01 5.09714305e-01
      5.17714262e-01 5.29142857e-01 5.31428576e-01 5.19999981e-01
      5.22285700e-01 4.84571427e-01 4.94857132e-01 4.98285711e-01
      4.85714287e-01 4.74285722e-01 4.82285708e-01 4.45714295e-01
      4.46857125e-01 4.59428579e-01 4.53714281e-01 4.37714279e-01
      4.51428562e-01 4.27428573e-01 4.63999987e-01 4.09142852e-01
      4.47999984e-01 4.19428557e-01 4.62857127e-01 4.58285719e-01
      4.57142860e-01 4.29714292e-01 5.90857148e-01 3.77142847e-01
      7.37142861e-01 5.29142857e-01 7.27999985e-01 2.46857136e-01
      2.29257131e+00 2.28571426e-03 1.37142856e-02 8.45714286e-02
      1.58857137e-01 2.05714285e-01 2.09142849e-01 1.86285719e-01
      2.28571430e-01 1.95428565e-01 3.01714271e-01 3.97714287e-01
      5.13142824e-01 5.46285689e-01 5.69142878e-01 5.42857111e-01
      5.81714272e-01 5.65714300e-01 5.36000013e-01 4.46857125e-01
      4.30857152e-01 4.19428557e-01 4.57142860e-01 5.25714278e-01
      6.01142824e-01 6.91428542e-01 7.23428547e-01 7.55428553e-01
      7.86285698e-01 7.32571423e-01 6.97142839e-01 7.00571418e-01
      6.35428548e-01 6.44571424e-01 6.41142845e-01 5.58857143e-01
      6.13714278e-01 6.97142839e-01 7.49714255e-01 8.02285731e-01
      7.71428585e-01 8.02285731e-01 7.77142823e-01 7.86285698e-01
      7.91999996e-01 7.86285698e-01 8.39999974e-01 8.22857141e-01
      7.55428553e-01 8.24000001e-01 7.27999985e-01 7.36000001e-01
      8.01142871e-01 7.54285693e-01 7.40571439e-01 7.77142823e-01
      8.06857109e-01 7.80571401e-01 7.22285688e-01 6.93714261e-01
      7.00571418e-01 7.13142872e-01 7.08571434e-01 7.01714277e-01
      6.76571429e-01 7.05142856e-01 6.93714261e-01 6.84571445e-01
      6.42285705e-01 6.44571424e-01 7.06285715e-01 6.62857115e-01
      6.57142878e-01 6.17142856e-01 6.99428558e-01 6.41142845e-01
      6.81142867e-01 6.45714283e-01 6.87999964e-01 6.71999991e-01
      7.46285677e-01 7.85142839e-01 8.27428579e-01 8.00000012e-01
      8.70857120e-01 9.37142849e-01 9.13142860e-01 1.00228572e+00
      9.95428562e-01 9.61142838e-01 1.10857141e+00 1.14742851e+00
      1.12685716e+00 1.19771433e+00 1.16914284e+00 1.13828576e+00
      1.27657139e+00 1.17142856e+00 1.28799999e+00 1.24800003e+00
      1.32685709e+00 1.33599997e+00 1.36457145e+00 1.31200004e+00
      1.34285712e+00 1.32228565e+00 1.36457145e+00 1.30857146e+00
      1.29485714e+00 1.23885715e+00 1.28799999e+00 1.16914284e+00
      1.17942858e+00 1.18857145e+00 1.14057148e+00 1.23657143e+00
      1.19200003e+00 1.24228573e+00 1.20799994e+00 1.29714286e+00
      1.19085717e+00 1.20114279e+00 1.22514284e+00 1.23199999e+00
      1.23771429e+00 1.22628570e+00 1.24228573e+00 1.15199995e+00
      1.22057140e+00 1.20228565e+00 1.20114279e+00 1.07314289e+00
      1.10285711e+00 1.07085717e+00 9.95428562e-01 9.56571400e-01
      9.02857125e-01 8.47999990e-01 8.52571428e-01 8.45714271e-01
      8.36571395e-01 8.27428579e-01 8.97142828e-01 8.44571412e-01
      8.84571433e-01 8.76571417e-01 8.19428563e-01 8.67428541e-01
      8.09142828e-01 7.53142834e-01 8.14857125e-01 7.77142823e-01
      7.42857158e-01 7.75999963e-01 7.00571418e-01 7.32571423e-01
      7.27999985e-01 7.13142872e-01 7.09714293e-01 6.80000007e-01
      7.46285677e-01 7.48571396e-01 7.78285682e-01 7.82857120e-01
      7.34857142e-01 8.81142855e-01 8.67428541e-01 9.20000017e-01
      9.56571400e-01 9.33714271e-01 1.01714289e+00 1.05714285e+00
      1.02285719e+00 1.09371424e+00 1.11542857e+00 1.13028574e+00
      1.11885715e+00 1.14057148e+00 1.13714290e+00 1.19085717e+00
      1.32342851e+00 1.27085710e+00 1.38628566e+00 1.39428568e+00
      1.45142853e+00 1.46971428e+00 1.41142857e+00 1.49599993e+00
      1.43885708e+00 1.37599993e+00 1.36114287e+00 1.44914281e+00
      1.50285709e+00 1.44114280e+00 1.40685713e+00 1.44914281e+00
      1.41828573e+00 1.48228574e+00 1.43314290e+00 1.47314286e+00
      1.39771426e+00 1.37942851e+00 1.29142857e+00 1.23542857e+00
      1.21828568e+00 1.16914284e+00 1.00457144e+00 1.01600003e+00
      1.05257142e+00 9.63428557e-01 9.81714249e-01 8.71999979e-01
      9.03999984e-01 8.53714287e-01 8.95999968e-01 8.22857141e-01
      7.85142839e-01 8.02285731e-01 7.71428585e-01 7.79428542e-01
      7.02857137e-01 6.84571445e-01 6.62857115e-01 6.30857110e-01
      6.42285705e-01 6.17142856e-01 5.40571451e-01 5.38285732e-01
      5.30285716e-01 4.99428570e-01 5.04000008e-01 6.27428591e-01
      6.67428553e-01 6.77714288e-01 6.14857137e-01 5.43999970e-01
      5.29142857e-01 4.92571414e-01 4.66285706e-01 4.50285703e-01
      3.19999993e-01 2.71999985e-01 2.28571430e-01 1.62285715e-01
      1.40571430e-01 1.23428568e-01 1.34857148e-01 1.06285714e-01
      1.01714283e-01 1.02857143e-01 9.48571414e-02 9.14285704e-02
      7.42857158e-02 5.82857132e-02 6.74285740e-02 9.02857110e-02
      4.63999987e-01</_>
    <_>
      6.71657133e+00 4.57142852e-03 3.42857130e-02 4.10285711e-01
      2.17142850e-02 7.47428536e-01 6.43428564e-01 5.14285713e-02
      8.34285676e-01 6.38857126e-01 1.21828568e+00 3.04457140e+00
      2.25600004e+00 8.73942852e+00 1.81725712e+01 5.26845703e+01
      5.89988556e+01 1.50091429e+01 1.81599998e+00 1.78628564e+00
      2.56457138e+00 2.71885705e+00 1.17942858e+00 2.17028570e+00
      2.39657140e+00 2.27885723e+00 1.98285711e+00 1.59999989e-02
      3.19999978e-02 3.42857139e-03 6.27657127e+00 0. 1.24571428e-01 0.
      3.89714271e-01 1.39428568e+00 2.40799999e+00 0. 9.14285704e-03
      1.14285713e-03 3.31428573e-02 0. 4.82285708e-01 1.21142857e-01 0.
      1.14285713e-03 0. 0. 6.85714278e-03 0. 8.41142833e-01
      2.85714287e-02 1.14285713e-03 0. 0. 5.59999980e-02 4.57142852e-03
      0. 0. 0. 2.51428559e-02 0. 0. 2.28571426e-03 0. 0. 1.33714288e-01
      0. 0. 0. 2.85714287e-02 0. 0. 1.14285713e-02 0. 2.12114286e+00 0.
      0. 0. 3.42857139e-03 9.14285704e-02 0. 0. 3.59999985e-01 0. 0. 0.
      3.77142839e-02 0. 0. 1.56571433e-01 0. 1.14285713e-03
      5.71428565e-03 0. 1.37142856e-02 6.27428591e-01 0. 4.80000004e-02
      1.14285713e-03 0. 2.06857145e-01 0. 7.95428574e-01 5.02857119e-02
      1.02857146e-02 5.94285727e-02 3.42857139e-03 6.85714278e-03
      1.21142857e-01 1.66857135e+00 4.11428586e-02 4.57142852e-03
      1.14285713e-02 6.85714304e-01 1.07428573e-01 3.42857139e-03 0. 0.
      0. 1.67885709e+00 0. 0. 0. 1.14285713e-02 5.71428575e-02
      4.62857127e-01 0. 1.14285713e-03 0. 6.85714278e-03 0.
      8.79999995e-02 2.17142850e-02 0. 1.14285713e-03 0. 0.
      2.28571426e-03 0. 3.80571425e-01 1.02857146e-02 0. 0. 0.
      2.85714287e-02 0. 0. 0. 0. 4.91428562e-02 0. 0. 1.14285713e-03 0.
      0. 1.10857144e-01 0. 0. 0. 5.71428575e-02 0. 4.57142852e-03
      1.14285713e-02 6.85714278e-03 1.30742860e+00 1.14285713e-03
      3.42857139e-03 7.99999945e-03 5.48571423e-02 2.54857153e-01 0. 0.
      2.62857139e-01 9.14285704e-03 3.54285724e-02 1.94285717e-02
      5.37142873e-01 4.57142852e-03 0. 0. 0. 0. 0. 0. 0. 0. 0. 0. 0. 0.
      0. 0. 0. 0. 0. 0. 0. 0. 0. 0. 0. 0. 0. 0. 0. 0. 0. 0. 0. 0. 0. 0.
      0. 0. 0. 0. 0. 0. 0. 0. 0. 0. 0. 0. 0. 0. 0. 0. 0. 0. 0. 0. 0. 0.
      0. 0. 0. 0. 0. 0. 0. 0. 0. 0. 0. 0. 0. 0. 0. 0. 0. 0. 0. 0. 0.
      6.38857126e+00 2.62857135e-02 8.43542862e+00 4.15542841e+00
      1.84799993e+00 1.99199998e+00 6.23199987e+00 3.23771429e+00
      2.27885723e+00 2.52457142e+00 1.75657141e+00 1.93257141e+00
      1.67542851e+00 1.58057141e+00 1.45714283e+00 1.38285708e+00
      1.51428568e+00 1.47885716e+00 1.20685709e+00 8.07999969e-01
      8.04571390e-01 5.97714305e-01 5.25714278e-01 5.40571451e-01
      4.18285698e-01 4.78857130e-01 5.14285684e-01 4.79999989e-01
      4.35428560e-01 3.71428579e-01 3.70285720e-01 4.30857152e-01
      4.06857133e-01 3.84000003e-01 3.48571420e-01 3.54285717e-01
      4.00000006e-01 3.19999993e-01 3.09714288e-01 3.74857128e-01
      3.46285701e-01 3.32571417e-01 2.76571423e-01 3.09714288e-01
      3.35999995e-01 3.74857128e-01 2.94857144e-01 2.71999985e-01
      3.19999993e-01 2.33142853e-01 2.18285710e-01 2.50285715e-01
      2.57142842e-01 2.33142853e-01 2.35428572e-01 2.66285717e-01
      2.34285712e-01 2.53714293e-01 2.55999982e-01 2.42285714e-01
      2.60571420e-01 3.13142866e-01 3.56571436e-01 3.87428582e-01
      3.31428558e-01 3.10857147e-01 3.02857131e-01 3.62285703e-01
      3.65714282e-01 3.15428555e-01 3.33714277e-01 3.70285720e-01
      3.07428569e-01 3.32571417e-01 2.74285704e-01 2.66285717e-01
      2.94857144e-01 3.03999990e-01 3.00571412e-01 2.30857134e-01
      2.51428574e-01 2.54857153e-01 3.02857131e-01 3.07428569e-01
      3.50857139e-01 5.02857149e-01 4.50285703e-01 3.97714287e-01
      3.65714282e-01 3.91999990e-01 3.95428568e-01 3.93142849e-01
      4.59428579e-01 4.53714281e-01 4.79999989e-01 5.31428576e-01
      4.39999998e-01 4.90285695e-01 5.72571397e-01 5.04000008e-01
      5.70285738e-01 7.16571450e-01 6.31999969e-01 8.62857163e-01
      1.06057143e+00 9.85142827e-01 1.28114283e+00 1.33485711e+00
      1.50742853e+00 1.57599998e+00 1.59314287e+00 1.96914279e+00
      1.30400002e+00 1.41485715e+00 1.39199996e+00 1.43657136e+00
      1.31885707e+00 1.47428572e+00 1.39885712e+00 1.38628566e+00
      1.52571428e+00 1.71428573e+00 1.97714281e+00 1.94628572e+00
      1.98171425e+00 1.81714284e+00 1.95200002e+00 3.01371431e+00
      3.03999996e+00 2.13485718e+00 2.39885712e+00 2.54742861e+00
      2.70857143e+00 2.92799997e+00 3.07200003e+00 2.91657138e+00
      2.96799994e+00 2.96228576e+00 3.18285704e+00 3.05028558e+00
      2.92342854e+00 3.12914276e+00 2.73371434e+00 2.88914275e+00
      2.94171429e+00 2.81942844e+00 2.19771433e+00 2.72571421e+00
      2.35428572e+00 2.40228558e+00 1.96342850e+00 2.11771417e+00
      1.81028569e+00 1.90399992e+00 1.19314289e+00 1.36457145e+00
      1.03542852e+00 1.05028570e+00 8.77714276e-01 7.73714304e-01
      7.88571417e-01 9.31428552e-01 8.54857147e-01 6.71999991e-01
      5.95428586e-01 7.25714266e-01 8.02285731e-01 4.56000000e-01
      6.41142845e-01 7.05142856e-01 3.10857147e-01 5.38285732e-01
      5.89714289e-01 2.98285723e-01 4.25142854e-01 4.07999992e-01
      3.02857131e-01 3.55428576e-01 3.91999990e-01 2.25142851e-01
      2.70857126e-01 2.78857142e-01 1.58857137e-01 2.69714296e-01
      1.22285716e-01 2.54857153e-01 1.39428571e-01 1.84000000e-01
      1.65714279e-01 1.73714280e-01 1.14285715e-01 1.86285719e-01
      1.16571426e-01 1.43999994e-01 1.62285715e-01 7.77142867e-02
      1.25714287e-01 7.99999982e-02 1.29142851e-01 1.31428570e-01
      5.37142865e-02 1.26857147e-01 5.14285713e-02 1.33714288e-01
      8.91428590e-02 1.06285714e-01 3.88571434e-02 1.29142851e-01
      8.91428590e-02 1.16571426e-01 7.99999982e-02 7.08571449e-02
      7.31428564e-02 7.54285678e-02 7.42857158e-02 5.59999980e-02
      9.48571414e-02 7.19999969e-02 6.97142854e-02 6.97142854e-02
      7.08571449e-02 9.25714299e-02 4.57142852e-02 9.25714299e-02
      4.34285700e-02 5.48571423e-02 6.51428550e-02 2.74285711e-02
      6.05714284e-02 2.40000002e-02 3.99999991e-02 2.85714287e-02
      1.82857141e-02 5.14285713e-02 2.97142863e-02 1.48571432e-02
      4.22857143e-02 1.82857141e-02 1.37142856e-02 4.91428562e-02
      1.37142856e-02 9.14285704e-03 2.51428559e-02 6.85714278e-03
      6.85714278e-03 2.62857135e-02 4.57142852e-03 4.57142852e-03
      7.99999945e-03 2.28571426e-03 2.28571426e-03 1.25714280e-02
      3.42857139e-03 0. 0. 1.04000002e-01 0. 0. 0. 0. 0. 0. 0. 0. 0. 0.
      0. 0. 0. 0. 0. 0. 0. 0. 0. 0. 0. 0. 0. 0. 0. 1.14285713e-03 0.
      1.14285713e-03 0. 0. 0. 1.14285713e-03 1.14285713e-03
      1.14285713e-03 0. 2.28571426e-03 0. 0. 0. 2.28571426e-03 0. 0.
      1.14285713e-03 1.14285713e-03 1.14285713e-03 1.14285713e-03
      2.28571426e-03 2.28571426e-03 2.28571426e-03 2.28571426e-03
      1.14285713e-03 6.85714278e-03 3.42857139e-03 6.85714278e-03
      6.85714278e-03 5.71428565e-03 1.25714280e-02 6.85714278e-03
      1.02857146e-02 1.25714280e-02 1.25714280e-02 1.14285713e-02
      1.48571432e-02 1.02857146e-02 1.82857141e-02 1.71428565e-02
      1.02857146e-02 9.14285704e-03 1.25714280e-02 1.37142856e-02
      1.25714280e-02 1.02857146e-02 1.82857141e-02 1.02857146e-02
      1.37142856e-02 1.94285717e-02 3.19999978e-02 2.51428559e-02
      3.99999991e-02 3.65714282e-02 3.54285724e-02 2.97142863e-02
      3.99999991e-02 5.14285713e-02 5.71428575e-02 5.48571423e-02
      6.51428550e-02 5.82857132e-02 7.65714273e-02 8.68571401e-02
      1.02857143e-01 1.09714285e-01 9.94285718e-02 1.31428570e-01
      1.23428568e-01 1.74857140e-01 1.98857144e-01 2.42285714e-01
      2.53714293e-01 3.17714274e-01 3.62285703e-01 4.22857136e-01
      4.62857127e-01 4.88000005e-01 4.47999984e-01 5.07428586e-01
      5.29142857e-01 5.31428576e-01 5.79428554e-01 6.20571434e-01
      6.44571424e-01 6.30857110e-01 6.49142861e-01 6.60571396e-01
      6.93714261e-01 7.02857137e-01 7.83999979e-01 7.48571396e-01
      8.26285720e-01 8.49142849e-01 8.95999968e-01 8.68571401e-01
      9.51999962e-01 9.91999984e-01 1.24114287e+00 1.41942859e+00
      1.50971425e+00 1.60571432e+00 1.79999995e+00 1.73599994e+00
      1.82514286e+00 1.82628572e+00 1.84342849e+00 1.91657138e+00
      2.00457144e+00 2.14057136e+00 2.30399990e+00 2.42514277e+00
      2.51085711e+00 2.66400003e+00 2.63199997e+00 2.72799993e+00
      2.83428574e+00 2.93028569e+00 3.03314281e+00 3.02742863e+00
      3.14857149e+00 3.16799998e+00 3.09485722e+00 3.01371431e+00
      2.82285714e+00 2.84685707e+00 2.79085708e+00 2.53942847e+00
      2.35999990e+00 2.11428571e+00 2.05371428e+00 1.85599995e+00
      1.84000003e+00 1.87542856e+00 1.78857136e+00 1.82285714e+00
      1.93714285e+00 2.19199991e+00 2.45371437e+00 2.70057130e+00
      2.92114282e+00 3.19542861e+00 3.08342862e+00 3.09371424e+00
      2.69942856e+00 2.39314294e+00 2.36228561e+00 2.14057136e+00
      2.04799986e+00 1.80799997e+00 1.71085715e+00 1.55542850e+00
      1.38857138e+00 1.22628570e+00 1.08228576e+00 9.94285703e-01
      8.89142871e-01 8.01142871e-01 7.09714293e-01 6.97142839e-01
      7.05142856e-01 6.78857148e-01 6.28571451e-01 7.03999996e-01
      6.38857126e-01 6.80000007e-01 6.31999969e-01 6.54857159e-01
      6.21714294e-01 5.64571440e-01 6.09142840e-01 5.82857132e-01
      6.60571396e-01 6.34285688e-01 6.77714288e-01 6.84571445e-01
      7.41714299e-01 7.83999979e-01 8.01142871e-01 8.97142828e-01
      8.67428541e-01 8.50285709e-01 9.48571444e-01 9.41714287e-01
      1.04114282e+00 1.02857137e+00 1.07314289e+00 1.05942857e+00
      1.13028574e+00 1.16914284e+00 1.12571430e+00 1.27885711e+00
      1.25371432e+00 1.38857138e+00 1.42400002e+00 1.47314286e+00
      1.48000002e+00 1.54171431e+00 1.62171423e+00 1.65942860e+00
      1.68228567e+00 1.64800000e+00 1.60114288e+00 1.51885712e+00
      1.37828565e+00 1.44457138e+00 1.36114287e+00 1.26742852e+00
      1.27885711e+00 1.25142860e+00 1.10285711e+00 1.08228576e+00
      1.02171433e+00 8.51428568e-01 7.71428585e-01 6.18285716e-01
      4.69714284e-01 3.96571428e-01 3.30285698e-01 3.01714271e-01
      2.68571436e-01 2.77714282e-01 2.28571430e-01 2.06857145e-01
      2.51428574e-01 2.31999993e-01 2.38857135e-01 4.21714276e-01
      3.16571414e-01 7.44000018e-01</_>
    <_>
      5.97714305e-01 2.51428559e-02 3.77142839e-02 6.97142854e-02
      4.68571410e-02 2.17142850e-01 2.66285717e-01 5.59999980e-02
      2.76571423e-01 1.78285718e-01 2.60571420e-01 5.99999964e-01
      4.70857143e-01 1.03428566e+00 7.01714277e-01 1.13257146e+00
      1.25371432e+00 1.37714279e+00 1.17028570e+00 1.59428573e+00
      1.57371426e+00 1.53257143e+00 1.81142855e+00 1.21257138e+00
      1.77828574e+00 1.10857141e+00 2.17257142e+00 1.02742851e+00
      1.21599996e+00 1.42514288e+00 2.34971428e+00 1.03428566e+00
      1.66628575e+00 1.95200002e+00 2.46971416e+00 4.75199986e+00
      3.00228572e+00 3.44457150e+00 4.88000011e+00 5.70628548e+00
      7.20571423e+00 6.97942829e+00 9.11999989e+00 1.13828573e+01
      9.18057156e+00 9.71657085e+00 1.03771429e+01 7.42628574e+00
      9.19657135e+00 5.90628576e+00 6.53485727e+00 5.93599987e+00
      4.70628548e+00 3.90057135e+00 3.69485712e+00 3.98628569e+00
      3.31999993e+00 2.72799993e+00 2.31885719e+00 1.43085718e+00
      2.63314295e+00 9.40571427e-01 1.55657136e+00 1.88000000e+00
      6.27428591e-01 1.10742855e+00 2.03085709e+00 1.21257138e+00
      7.31428564e-01 1.30514288e+00 8.83428574e-01 4.05714273e-01
      5.51999986e-01 5.82857132e-01 9.86285686e-01 5.89714289e-01
      3.96571428e-01 2.58285701e-01 8.57142881e-02 2.86857128e-01
      1.08342850e+00 9.02857110e-02 1.45142853e-01 4.16000009e-01
      3.56571436e-01 2.47999996e-01 1.09714285e-01 5.49714267e-01
      1.73714280e-01 1.85142860e-01 6.22857153e-01 3.96571428e-01
      4.13714290e-01 3.89714271e-01 7.66857147e-01 6.71999991e-01
      7.57714272e-01 2.20571429e-01 5.95428586e-01 2.67428577e-01
      1.88571423e-01 3.63428563e-01 1.10857144e-01 2.57142842e-01
      7.99999982e-02 7.08571449e-02 9.02857110e-02 2.40000002e-02
      2.28571426e-02 9.25714299e-02 2.19428569e-01 7.08571449e-02
      2.74285711e-02 4.11428586e-02 1.27999991e-01 8.68571401e-02
      3.54285724e-02 4.57142852e-03 6.85714278e-03 2.28571426e-03
      2.75428563e-01 0. 1.14285713e-02 7.99999945e-03 4.80000004e-02
      1.17714286e-01 1.16571426e-01 5.71428565e-03 2.51428559e-02
      1.37142856e-02 2.62857135e-02 0. 8.34285691e-02 5.02857119e-02
      1.14285713e-03 2.05714293e-02 5.71428565e-03 1.14285713e-03
      1.82857141e-02 1.14285713e-03 1.22285716e-01 4.11428586e-02
      1.82857141e-02 2.28571426e-03 9.14285704e-03 6.39999956e-02
      2.05714293e-02 1.25714280e-02 2.28571426e-03 0. 6.97142854e-02 0.
      3.42857139e-03 1.25714280e-02 0. 1.14285713e-02 1.16571426e-01
      5.71428565e-03 1.02857146e-02 1.37142856e-02 5.94285727e-02
      6.85714278e-03 1.14285713e-03 2.74285711e-02 3.42857130e-02
      1.96571425e-01 1.48571432e-02 7.99999945e-03 0. 3.88571434e-02
      1.78285718e-01 7.99999945e-03 4.57142852e-03 1.25714287e-01
      4.45714295e-02 3.54285724e-02 6.85714278e-03 1.21142857e-01
      2.05714293e-02 2.05714293e-02 0. 0. 0. 0. 0. 0. 0. 0. 0. 0. 0. 0.
      0. 0. 0. 0. 0. 0. 0. 0. 0. 0. 0. 0. 0. 0. 0. 0. 0. 0. 0. 0. 0. 0.
      0. 0. 0. 0. 0. 0. 0. 0. 0. 0. 0. 0. 0. 0. 0. 0. 0. 0. 0. 0. 0. 0.
      0. 0. 0. 0. 0. 0. 0. 0. 0. 0. 0. 0. 0. 0. 0. 0. 0. 0. 0. 0.
      3.66857141e-01 2.74285711e-02 7.31428564e-02 3.08571428e-01
      3.61142844e-01 3.57714295e-01 4.02285695e-01 4.79999989e-01
      7.22285688e-01 8.04571390e-01 8.90285730e-01 8.95999968e-01
      9.85142827e-01 9.86285686e-01 1.06628573e+00 1.02399993e+00
      1.15542853e+00 1.37371433e+00 1.57142854e+00 1.64571428e+00
      1.54514289e+00 1.61828566e+00 1.68342853e+00 1.81942856e+00
      1.82400000e+00 1.79885709e+00 1.89371431e+00 1.83657146e+00
      1.97485709e+00 2.10628581e+00 1.97714281e+00 1.99771428e+00
      1.98971426e+00 1.96228564e+00 1.90742850e+00 1.99199998e+00 2.
      1.69599998e+00 1.87428570e+00 1.78742850e+00 1.74514282e+00
      1.74285710e+00 1.78971422e+00 1.76114285e+00 1.72685707e+00
      1.67771423e+00 1.57142854e+00 1.61257136e+00 1.55428565e+00
      1.48342860e+00 1.43085718e+00 1.44114280e+00 1.33714283e+00
      1.45599997e+00 1.28914285e+00 1.37714279e+00 1.47428572e+00
      1.31314290e+00 1.29257143e+00 1.27542853e+00 1.29600000e+00
      1.29028571e+00 1.23314285e+00 1.24571431e+00 1.19314289e+00
      1.24342859e+00 1.11771429e+00 1.17600000e+00 1.22628570e+00
      1.16685712e+00 1.28114283e+00 1.10971427e+00 1.10171425e+00
      1.13257146e+00 1.04114282e+00 1.03314281e+00 1.01714289e+00
      1.06742859e+00 1.09142852e+00 9.50857162e-01 1.01600003e+00
      1.03428566e+00 9.16571438e-01 9.73714292e-01 1. 1.00800002e+00
      9.71428573e-01 9.08571422e-01 8.52571428e-01 8.82285714e-01
      8.92571390e-01 8.63999963e-01 8.47999990e-01 8.62857163e-01
      8.24000001e-01 8.60571444e-01 8.98285687e-01 8.09142828e-01
      8.71999979e-01 8.44571412e-01 8.22857141e-01 7.98857152e-01
      8.11428547e-01 7.96571434e-01 7.49714255e-01 7.63428569e-01
      7.47428536e-01 8.11428547e-01 7.65714288e-01 8.13714266e-01
      7.33714283e-01 8.14857125e-01 7.42857158e-01 7.37142861e-01
      7.32571423e-01 7.03999996e-01 7.81714261e-01 7.32571423e-01
      7.45142877e-01 7.40571439e-01 6.86857164e-01 7.16571450e-01
      6.81142867e-01 7.32571423e-01 7.22285688e-01 7.15428591e-01
      7.17714250e-01 7.15428591e-01 8.90285730e-01 6.86857164e-01
      6.28571451e-01 6.69714272e-01 6.93714261e-01 6.93714261e-01
      7.22285688e-01 7.24571407e-01 6.57142878e-01 6.89142823e-01
      6.59428537e-01 7.24571407e-01 6.56000018e-01 6.30857110e-01
      7.26857126e-01 6.86857164e-01 7.07428575e-01 7.26857126e-01
      6.54857159e-01 6.69714272e-01 7.02857137e-01 6.98285699e-01
      6.42285705e-01 6.80000007e-01 6.53714299e-01 7.14285731e-01
      6.73142850e-01 7.02857137e-01 6.58285737e-01 6.67428553e-01
      6.12571418e-01 6.19428575e-01 6.62857115e-01 6.25142872e-01
      6.44571424e-01 6.29714251e-01 6.57142878e-01 5.94285727e-01
      6.04571402e-01 5.47428548e-01 6.06857121e-01 6.18285716e-01
      6.35428548e-01 6.24000013e-01 5.54285705e-01 6.02285683e-01
      5.75999975e-01 5.82857132e-01 5.82857132e-01 6.06857121e-01
      6.11428559e-01 5.72571397e-01 5.47428548e-01 5.71428537e-01
      5.69142878e-01 5.72571397e-01 5.42857111e-01 5.80571413e-01
      5.02857149e-01 5.14285684e-01 5.77142835e-01 5.15428543e-01
      5.14285684e-01 5.83999991e-01 5.26857138e-01 5.00571430e-01
      5.63428581e-01 5.29142857e-01 5.08571446e-01 4.74285722e-01
      4.86857146e-01 5.01714289e-01 5.24571419e-01 4.34285700e-01
      5.11999965e-01 4.90285695e-01 5.08571446e-01 4.53714281e-01
      4.59428579e-01 4.58285719e-01 4.99428570e-01 4.42285717e-01
      4.88000005e-01 4.58285719e-01 4.41142857e-01 4.98285711e-01
      4.35428560e-01 4.11428571e-01 5.00571430e-01 4.23999995e-01
      4.27428573e-01 4.42285717e-01 4.58285719e-01 4.10285711e-01
      4.17142838e-01 4.17142838e-01 3.97714287e-01 4.03428555e-01
      3.93142849e-01 3.63428563e-01 3.73714268e-01 3.72571439e-01
      3.88571411e-01 3.58857125e-01 3.84000003e-01 3.87428582e-01
      3.66857141e-01 3.35999995e-01 3.57714295e-01 3.17714274e-01
      3.03999990e-01 3.24571431e-01 3.28000009e-01 3.40571433e-01
      2.91428566e-01 3.41714293e-01 2.89142847e-01 3.40571433e-01
      2.86857128e-01 2.73142844e-01 2.94857144e-01 3.22285712e-01
      2.67428577e-01 2.57142842e-01 2.67428577e-01 3.32571417e-01
      4.22857143e-02 3.09714293e+00 1.71428565e-02 6.17142841e-02
      7.42857158e-02 9.82857123e-02 1.08571425e-01 1.25714287e-01
      1.39428571e-01 1.25714287e-01 1.04000002e-01 1.27999991e-01
      1.40571430e-01 1.39428571e-01 1.11999996e-01 1.00571424e-01
      1.19999997e-01 1.05142854e-01 1.10857144e-01 8.45714286e-02
      9.02857110e-02 7.77142867e-02 8.57142881e-02 1.04000002e-01
      8.68571401e-02 6.62857145e-02 9.37142819e-02 9.25714299e-02
      7.65714273e-02 7.88571388e-02 7.77142867e-02 1.01714283e-01
      8.91428590e-02 1.05142854e-01 9.94285718e-02 9.82857123e-02
      7.99999982e-02 1.06285714e-01 1.25714287e-01 1.17714286e-01
      1.39428571e-01 1.54285714e-01 1.31428570e-01 1.35999992e-01
      1.47428572e-01 1.50857136e-01 1.77142859e-01 1.74857140e-01
      1.82857141e-01 1.92000002e-01 1.62285715e-01 2.09142849e-01
      1.96571425e-01 1.98857144e-01 1.87428564e-01 2.01142848e-01
      2.12571427e-01 2.20571429e-01 2.51428574e-01 2.29714289e-01
      2.44571432e-01 2.66285717e-01 2.99428582e-01 2.97142863e-01
      2.94857144e-01 3.38285714e-01 3.16571414e-01 3.12000006e-01
      3.23428571e-01 3.42857152e-01 3.48571420e-01 3.61142844e-01
      3.84000003e-01 3.80571425e-01 4.41142857e-01 4.50285703e-01
      4.12571430e-01 4.61714268e-01 5.23428559e-01 4.60571438e-01
      4.84571427e-01 5.15428543e-01 5.72571397e-01 5.83999991e-01
      5.86285710e-01 5.89714289e-01 6.61714256e-01 6.56000018e-01
      7.13142872e-01 6.63999975e-01 7.29142845e-01 6.61714256e-01
      7.66857147e-01 7.70285726e-01 8.27428579e-01 8.41142833e-01
      8.68571401e-01 9.31428552e-01 9.47428584e-01 9.77142870e-01
      1.02514279e+00 9.90857124e-01 9.81714249e-01 1.03657138e+00
      1.09371424e+00 1.16342854e+00 1.13942862e+00 1.16685712e+00
      1.29142857e+00 1.20914280e+00 1.32342851e+00 1.29828572e+00
      1.34285712e+00 1.34857142e+00 1.32342851e+00 1.45714283e+00
      1.40342855e+00 1.46399999e+00 1.42400002e+00 1.50628567e+00
      1.52800000e+00 1.53485715e+00 1.59542859e+00 1.59200001e+00
      1.62057137e+00 1.58285713e+00 1.68342853e+00 1.73828566e+00
      1.80114281e+00 1.70285714e+00 1.84685707e+00 1.81828570e+00
      1.83542860e+00 1.93942857e+00 1.95885718e+00 2.02285719e+00
      2.12914276e+00 2.05485702e+00 2.17485714e+00 2.27657151e+00
      2.24457145e+00 2.37828565e+00 2.34514284e+00 2.30628562e+00
      2.40914273e+00 2.42400002e+00 2.45371437e+00 2.48457146e+00
      2.43199992e+00 2.46857142e+00 2.50285721e+00 2.47199988e+00
      2.34399986e+00 2.37142849e+00 2.26285720e+00 2.29371428e+00
      2.17828560e+00 2.16342854e+00 2.22057152e+00 2.11771417e+00
      2.11771417e+00 2.02171421e+00 1.86171424e+00 1.88114285e+00
      1.85371423e+00 1.83085716e+00 1.74628568e+00 1.66285717e+00
      1.62742853e+00 1.73142850e+00 1.57714283e+00 1.66628575e+00
      1.57485712e+00 1.54857147e+00 1.46399999e+00 1.38285708e+00
      1.45485711e+00 1.32457137e+00 1.42171431e+00 1.41714287e+00
      1.35200000e+00 1.32114279e+00 1.41828573e+00 1.38285708e+00
      1.32228565e+00 1.30400002e+00 1.24571431e+00 1.18742859e+00
      1.24342859e+00 1.14399993e+00 1.17257142e+00 1.14742851e+00
      1.13942862e+00 1.07542861e+00 1.05371428e+00 1.03657138e+00
      9.82857108e-01 9.85142827e-01 9.48571444e-01 9.15428579e-01
      9.20000017e-01 8.11428547e-01 7.94285715e-01 8.10285687e-01
      7.77142823e-01 8.04571390e-01 7.22285688e-01 6.73142850e-01
      6.82285726e-01 6.25142872e-01 6.69714272e-01 5.87428570e-01
      5.47428548e-01 5.27999997e-01 4.99428570e-01 4.86857146e-01
      4.85714287e-01 4.70857143e-01 4.51428562e-01 4.37714279e-01
      4.31999981e-01 3.53142858e-01 3.95428568e-01 3.72571439e-01
      3.54285717e-01 3.32571417e-01 3.14285725e-01 2.80000001e-01
      2.80000001e-01 2.90285707e-01 2.66285717e-01 2.35428572e-01
      2.23999992e-01 2.18285710e-01 2.25142851e-01 2.17142850e-01
      1.67999998e-01 1.55428573e-01 1.49714291e-01 1.47428572e-01
      1.34857148e-01 1.37142852e-01 1.42857134e-01 1.21142857e-01
      1.25714287e-01 1.01714283e-01 1.24571428e-01 7.42857158e-02
      8.91428590e-02 8.79999995e-02 9.37142819e-02 7.08571449e-02
      6.85714260e-02 7.42857158e-02 8.68571401e-02 9.14285704e-02
      8.79999995e-02 5.17714262e-01</_>
    <_>
      3.40290380e+00 1.99637022e-02 1.81488208e-02 2.54083481e-02
      5.62613420e-02 1.43375680e-01 3.04900169e-01 3.17604363e-01
      1.59528136e+00 3.56987286e+00 7.50272226e+00 1.45081673e+01
      1.38529949e+01 1.43049002e+01 4.91470051e+00 1.48638844e+00
      4.57350284e-01 1.23411976e-01 5.80762252e-02 5.98911084e-02
      3.88384759e-01 1.45190563e-02 0. 2.90381126e-02 1.03448279e-01
      1.14337571e-01 7.25952815e-03 5.44464588e-03 0. 0. 4.37386572e-01
      0. 0. 0. 1.81488204e-03 2.72232313e-02 3.99274044e-02 0. 0. 0. 0.
      0. 3.62976417e-02 9.07441042e-03 0. 7.25952815e-03 0. 0. 0. 0.
      1.21597096e-01 3.62976408e-03 0. 1.81488204e-03 1.81488204e-03
      1.81488208e-02 0. 0. 0. 0. 1.81488204e-03 0. 0. 0. 0. 0.
      1.63339376e-02 0. 5.44464588e-03 0. 1.08892918e-02 0.
      1.81488204e-03 0. 0. 4.35571700e-01 0. 0. 0. 1.81488204e-03
      7.25952815e-03 0. 0. 4.17422876e-02 0. 0. 0. 1.99637022e-02 0. 0.
      4.70054448e-01 0. 3.62976408e-03 1.27041740e-02 1.27041740e-02
      1.41560793e-01 1.63339376e-01 5.62613420e-02 5.44464588e-01
      3.66606176e-01 1.11796737e+00 3.53902006e+00 2.15789485e+00
      4.52631569e+00 1.72050822e+00 6.74773121e+00 2.27767706e+00
      4.26497269e+00 1.20689654e+00 2.02540827e+00 1.41742289e+00
      1.22323048e+00 8.42105269e-01 4.02903825e-01 4.31941926e-01
      2.21415609e-01 2.46823952e-01 4.90018167e-02 5.08166961e-02
      2.72232313e-02 2.83121610e+00 0. 3.08529940e-02 3.62976408e-03
      1.45190563e-02 7.98548087e-02 1.08892925e-01 1.81488204e-03
      8.34845752e-02 1.81488204e-03 1.39745921e-01 0. 1.94192380e-01
      3.08529940e-02 0. 2.45009080e-01 0. 0. 1.27041740e-02 0.
      7.42649746e+00 1.27041740e-02 1.81488204e-03 1.08892918e-02 0.
      9.61887464e-02 3.62976408e-03 0. 0. 0. 1.63974590e+01 0. 0.
      1.81488204e-03 0. 5.44464588e-03 2.64972776e-01 0. 1.81488204e-03
      0. 6.89655170e-02 1.81488204e-03 3.62976408e-03 5.44464588e-03
      1.81488204e-03 2.94918323e+00 1.81488204e-03 3.62976408e-03
      2.35934667e-02 1.45190563e-02 2.75862068e-01 0. 0. 2.06896558e-01
      1.45190563e-02 1.27041740e-02 1.08892918e-02 5.26315793e-02
      1.08892918e-02 7.25952815e-03 0. 0. 0. 0. 0. 0. 0. 0. 0. 0. 0. 0.
      0. 0. 0. 0. 0. 0. 0. 0. 0. 0. 0. 0. 0. 0. 0. 0. 0. 0. 0. 0. 0. 0.
      0. 0. 0. 0. 0. 0. 0. 0. 0. 0. 0. 0. 0. 0. 0. 0. 0. 0. 0. 0. 0. 0.
      0. 0. 0. 0. 0. 0. 0. 0. 0. 0. 0. 0. 0. 0. 0. 0. 0. 0. 0. 0.
      3.20689654e+00 2.10707808e+00 1.98148823e+01 8.97459126e+00
      2.17604351e+00 1.03629768e+00 4.44646090e-01 3.84754986e-01
      3.26678753e-01 2.75862068e-01 2.83121586e-01 3.24863881e-01
      2.90381134e-01 3.62976402e-01 3.86569887e-01 3.48457336e-01
      2.57713258e-01 2.68602550e-01 2.57713258e-01 2.37749547e-01
      2.86751360e-01 3.33938301e-01 2.72232294e-01 3.04900169e-01
      3.17604363e-01 2.81306714e-01 3.08529943e-01 2.84936488e-01
      3.28493655e-01 4.53720510e-01 3.66606176e-01 4.02903825e-01
      4.68239576e-01 5.28130651e-01 4.60980028e-01 4.71869320e-01
      5.53539038e-01 4.64609802e-01 5.00907421e-01 5.29945552e-01
      5.31760454e-01 6.02540851e-01 5.62613428e-01 6.47912860e-01
      8.09437394e-01 7.15063512e-01 6.89655185e-01 6.80580735e-01
      7.09618866e-01 6.67876601e-01 7.45916545e-01 7.18693316e-01
      6.64246798e-01 6.44283116e-01 6.46098018e-01 6.40653372e-01
      6.56987309e-01 5.44464588e-01 5.77132463e-01 6.17059886e-01
      5.48094392e-01 5.91651559e-01 5.97096205e-01 5.75317621e-01
      7.02359378e-01 7.29582608e-01 7.96733201e-01 9.07441020e-01
      9.94555354e-01 1. 1.17785847e+00 1.22141564e+00 1.15789473e+00
      1.23956442e+00 1.48275864e+00 1.39927411e+00 1.51361167e+00
      1.75680578e+00 2.10707808e+00 2.32667875e+00 2.81488204e+00
      3.69147015e+00 3.97459173e+00 4.61524487e+00 4.61524487e+00
      3.02177858e+00 4.19600725e+00 3.52087116e+00 3.20508170e+00
      3.09618878e+00 2.62250447e+00 2.12704182e+00 2.01996374e+00
      1.52994561e+00 1.03811252e+00 8.85662436e-01 5.86206913e-01
      4.06533569e-01 3.37568045e-01 2.26860255e-01 1.59709617e-01
      1.50635213e-01 9.25589874e-02 7.62250423e-02 5.26315793e-02
      3.44827585e-02 5.08166961e-02 2.72232313e-02 1.99637022e-02
      2.35934667e-02 1.63339376e-02 1.63339376e-02 2.35934667e-02
      1.27041740e-02 1.63339376e-02 1.08892918e-02 1.45190563e-02
      5.44464588e-03 2.54083481e-02 9.07441042e-03 3.62976408e-03
      1.81488208e-02 1.08892918e-02 1.63339376e-02 1.81488208e-02
      1.27041740e-02 1.63339376e-02 1.99637022e-02 7.25952815e-03
      5.44464588e-03 1.63339376e-02 5.44464588e-03 1.45190563e-02
      5.44464588e-03 5.44464588e-03 7.25952815e-03 9.07441042e-03
      7.25952815e-03 7.25952815e-03 5.44464588e-03 1.45190563e-02
      3.62976408e-03 5.44464588e-03 1.08892918e-02 7.25952815e-03
      3.62976408e-03 7.25952815e-03 7.25952815e-03 7.25952815e-03
      1.45190563e-02 5.44464588e-03 1.27041740e-02 5.44464588e-03
      9.07441042e-03 7.25952815e-03 5.44464588e-03 1.27041740e-02
      9.07441042e-03 1.27041740e-02 5.44464588e-03 1.81488204e-03
      1.45190563e-02 9.07441042e-03 3.62976408e-03 9.07441042e-03
      3.62976408e-03 9.07441042e-03 5.44464588e-03 1.45190563e-02 0.
      1.27041740e-02 0. 1.63339376e-02 5.44464588e-03 1.27041740e-02
      5.44464588e-03 5.44464588e-03 1.45190563e-02 1.81488204e-03
      1.63339376e-02 5.44464588e-03 1.08892918e-02 9.07441042e-03
      1.08892918e-02 5.44464588e-03 0. 9.07441042e-03 1.08892918e-02
      1.81488204e-03 3.62976408e-03 1.08892918e-02 9.07441042e-03 0.
      1.45190563e-02 1.27041740e-02 1.08892918e-02 7.25952815e-03
      1.08892918e-02 9.07441042e-03 5.44464588e-03 1.81488208e-02
      3.62976408e-03 1.81488204e-03 1.08892918e-02 5.44464588e-03
      2.17785835e-02 1.08892918e-02 0. 1.08892918e-02 1.08892918e-02 0.
      1.08892918e-02 0. 5.44464588e-03 1.81488208e-02 1.27041740e-02
      9.07441042e-03 5.44464588e-03 5.44464588e-03 1.81488204e-03
      1.45190563e-02 1.08892918e-02 5.44464588e-03 1.81488204e-03
      3.62976408e-03 1.81488204e-03 1.45190563e-02 1.81488204e-03
      5.44464588e-03 3.62976408e-03 1.08892918e-02 7.25952815e-03
      3.62976408e-03 3.62976408e-03 1.63339376e-02 1.81488204e-03
      3.62976408e-03 5.44464588e-03 3.62976408e-03 1.08892918e-02
      2.17785835e-02 1.08892918e-02 9.07441042e-03 0. 9.07441042e-03
      1.81488204e-03 7.25952815e-03 1.45190563e-02 1.81488208e-02
      1.81488204e-03 0. 0. 0. 0. 0. 5.28130651e-01 0. 0. 0. 0.
      1.81488204e-03 1.81488204e-03 0. 3.62976408e-03 3.62976408e-03 0.
      1.81488204e-03 1.81488204e-03 1.08892918e-02 3.62976408e-03
      1.27041740e-02 5.44464588e-03 1.45190563e-02 1.81488204e-03
      2.54083481e-02 3.08529940e-02 1.99637022e-02 2.90381126e-02
      3.81125212e-02 3.62976417e-02 3.99274044e-02 5.26315793e-02
      6.17059879e-02 4.90018167e-02 7.25952834e-02 6.17059879e-02
      5.98911084e-02 7.80399293e-02 7.07803965e-02 6.53357506e-02
      6.17059879e-02 7.62250423e-02 8.34845752e-02 4.71869335e-02
      5.26315793e-02 4.35571671e-02 4.90018167e-02 4.53720503e-02
      3.44827585e-02 3.26678753e-02 4.17422876e-02 3.44827585e-02
      2.35934667e-02 2.35934667e-02 2.90381126e-02 2.17785835e-02
      5.44464625e-02 4.17422876e-02 4.35571671e-02 2.72232313e-02
      5.26315793e-02 2.90381126e-02 3.99274044e-02 4.53720503e-02
      3.99274044e-02 3.44827585e-02 5.08166961e-02 2.90381126e-02
      4.35571671e-02 3.62976417e-02 3.08529940e-02 3.62976417e-02
      5.26315793e-02 3.26678753e-02 3.26678753e-02 2.17785835e-02
      3.08529940e-02 3.99274044e-02 3.62976417e-02 3.62976417e-02
      3.08529940e-02 4.90018167e-02 5.62613420e-02 4.53720503e-02
      3.26678753e-02 3.81125212e-02 2.90381126e-02 2.35934667e-02
      2.90381126e-02 3.62976417e-02 3.26678753e-02 5.62613420e-02
      4.53720503e-02 4.35571671e-02 4.35571671e-02 3.62976417e-02
      4.17422876e-02 5.08166961e-02 5.44464625e-02 4.53720503e-02
      5.44464625e-02 5.08166961e-02 5.44464625e-02 6.35208711e-02
      5.26315793e-02 4.17422876e-02 6.53357506e-02 7.62250423e-02
      8.34845752e-02 1.17967330e-01 9.61887464e-02 9.25589874e-02
      1.34301275e-01 1.54264972e-01 1.54264972e-01 1.63339376e-01
      1.83303088e-01 2.28675142e-01 2.54083484e-01 2.72232294e-01
      2.79491842e-01 3.10344815e-01 3.26678753e-01 3.19419235e-01
      3.72050822e-01 3.48457336e-01 3.77495468e-01 3.81125242e-01
      3.39382946e-01 2.88566232e-01 3.06715071e-01 2.88566232e-01
      3.17604363e-01 3.01270425e-01 3.19419235e-01 3.81125242e-01
      4.01088923e-01 4.80943739e-01 4.80943739e-01 4.10163343e-01
      3.62976402e-01 3.12159717e-01 2.97640651e-01 2.79491842e-01
      3.33938301e-01 3.26678753e-01 3.35753173e-01 3.30308527e-01
      3.82940114e-01 4.73684222e-01 5.44464588e-01 5.35390198e-01
      6.40653372e-01 7.13248670e-01 7.73139775e-01 9.50998187e-01
      9.83666062e-01 1.08711433e+00 1.27404714e+00 1.37386572e+00
      1.66606176e+00 1.87295830e+00 2.20871139e+00 2.39745927e+00
      2.36116147e+00 2.49727774e+00 2.60617065e+00 2.47731400e+00
      2.59528136e+00 2.74591660e+00 2.52268600e+00 2.62794924e+00
      2.64609790e+00 2.42831206e+00 2.31215978e+00 2.21052623e+00
      2.28856635e+00 2.14156079e+00 2.02903819e+00 2.01633406e+00
      1.72595286e+00 1.54627955e+00 1.23593462e+00 9.76406515e-01
      8.87477338e-01 8.29401076e-01 7.96733201e-01 7.00544477e-01
      6.06170595e-01 6.64246798e-01 6.49727762e-01 5.46279490e-01
      5.97096205e-01 5.51724136e-01 5.55353880e-01 5.39019942e-01
      5.06352067e-01 4.70054448e-01 3.97459179e-01 4.21052635e-01
      3.10344815e-01 2.81306714e-01 2.50453711e-01 2.28675142e-01
      2.08711430e-01 2.37749547e-01 2.15970963e-01 2.12341204e-01
      2.35934660e-01 2.12341204e-01 2.06896558e-01 1.90562621e-01
      2.17785850e-01 2.28675142e-01 1.88747734e-01 1.90562621e-01
      2.08711430e-01 1.88747734e-01 1.68784022e-01 1.81488201e-01
      1.88747734e-01 2.15970963e-01 1.96007267e-01 2.12341204e-01
      1.94192380e-01 2.26860255e-01 2.39564434e-01 2.32304901e-01
      2.19600722e-01 1.96007267e-01 1.92377493e-01 1.99637026e-01
      1.77858442e-01 1.88747734e-01 1.74228668e-01 1.32486388e-01
      1.52450085e-01 1.34301275e-01 1.45190567e-01 1.63339376e-01
      1.96007267e-01 2.32304901e-01 2.03266785e-01 2.21415609e-01
      2.79491842e-01 2.97640651e-01 2.37749547e-01 2.77676940e-01
      2.15970963e-01 2.03266785e-01 2.30490014e-01 1.83303088e-01
      1.59709617e-01 1.61524504e-01 1.45190567e-01 1.05263159e-01
      1.57894731e-01 2.92196006e-01 5.78947365e-01 1.90562618e+00
      4.96370220e+00 3.02885666e+01</_>
    <_>
      5.66746664e+00 9.55582201e-01 1.86074421e-01 1.44057617e-01
      9.24369693e-02 2.31692672e-01 2.36494586e-01 7.20288083e-02
      2.36494586e-01 1.03241295e-01 1.08043216e-01 2.89315730e-01
      1.16446577e-01 3.68547410e-01 1.98079228e-01 3.36134434e-01
      5.18607438e-01 6.23049200e-01 4.48979586e-01 1.39255702e+00
      1.46218479e+00 2.45738292e+00 4.93157244e+00 9.43577409e-01
      9.22689056e+00 8.16326499e-01 7.20168066e+00 1.64105642e+00
      3.24129653e+00 3.84153652e+00 4.64585829e+00 9.78391349e-01
      2.22328925e+00 5.95077991e+00 3.04201674e+00 6.75990391e+00
      2.16446567e+00 2.50540209e+00 1.10684276e+00 1.90996397e+00
      1.43697476e+00 5.57022810e-01 6.44657850e-01 4.02160853e-01
      9.72388908e-02 7.44297728e-02 2.04081628e-02 6.00240100e-03
      3.96158434e-02 6.00240100e-03 9.36374515e-02 1.32052815e-02
      4.80192062e-03 8.40336084e-03 4.80192062e-03 1.80072021e-02
      6.00240100e-03 2.40096031e-03 1.20048015e-03 0. 1.27250895e-01 0.
      2.40096031e-03 3.60144046e-03 2.40096031e-03 7.20288092e-03
      6.48259297e-02 2.40096031e-03 6.00240100e-03 7.20288092e-03
      4.08163257e-02 3.60144046e-03 6.00240100e-03 1.20048020e-02
      7.20288092e-03 2.58103222e-01 6.00240100e-03 4.80192062e-03
      3.60144046e-03 1.80072021e-02 6.84273690e-02 1.32052815e-02
      1.20048015e-03 1.23649456e-01 1.80072021e-02 2.16086432e-02
      2.52100825e-02 7.32292905e-02 1.44057618e-02 3.60144046e-03
      4.04561818e-01 1.20048020e-02 2.52100825e-02 5.76230474e-02
      3.60144041e-02 1.03241295e-01 2.13685468e-01 2.88115237e-02
      1.39255702e-01 7.44297728e-02 5.76230474e-02 2.41296515e-01
      8.88355300e-02 3.92557025e-01 1.51260495e-01 2.73709476e-01
      3.26530606e-01 3.10924351e-01 2.61704683e-01 5.21008372e-01
      8.05522203e-01 8.39135647e-01 1.58223283e+00 4.86194462e-01
      2.85234094e+00 5.52220881e-01 4.04561806e+00 3.75750273e-01
      3.00720286e+00 1.75270104e+00 4.17647028e+00 1.04441777e-01
      1.80300121e+01 8.75150025e-01 7.55222082e+00 9.83793449e+00
      1.33493388e+00 4.64585811e-01 9.71188426e-01 6.11044407e-01
      2.67707080e-01 6.84273690e-02 4.16566610e-01 4.51380551e-01
      6.72268867e-02 1.39255702e-01 1.38055220e-01 3.84153649e-02
      1.84873939e-01 4.32172865e-02 4.56182450e-01 1.71668664e-01
      8.16326514e-02 6.00240082e-02 6.48259297e-02 2.07683071e-01
      1.22448973e-01 8.04321691e-02 6.36254475e-02 6.48259297e-02
      2.62905151e-01 3.72148864e-02 6.24249689e-02 1.33253291e-01
      6.72268867e-02 7.32292905e-02 3.68547410e-01 1.33253291e-01
      1.17647052e-01 1.87274903e-01 2.46098429e-01 1.64465785e-01
      1.46458581e-01 2.70108044e-01 2.58103222e-01 6.60264075e-01
      2.86914766e-01 4.14165646e-01 4.03361320e-01 4.22569007e-01
      1.01680672e+00 8.60744298e-01 1.50300109e+00 2.05162048e+00
      2.73229289e+00 3.50900340e+00 5.80552197e+00 1.04429770e+01
      9.59543800e+00 6.72268867e+00 0. 0. 0. 0. 0. 0. 0. 0. 0. 0. 0. 0.
      0. 0. 0. 0. 0. 0. 0. 0. 0. 0. 0. 0. 0. 0. 0. 0. 0. 0. 0. 0. 0. 0.
      0. 0. 0. 0. 0. 0. 0. 0. 0. 0. 0. 0. 0. 0. 0. 0. 0. 0. 0. 0. 0. 0.
      0. 0. 0. 0. 0. 0. 0. 0. 0. 0. 0. 0. 0. 0. 0. 0. 0. 0. 0. 0.
      1.49219680e+00 7.44297728e-02 1.33253291e-01 1.63265303e-01
      1.45258099e-01 1.60864338e-01 1.58463374e-01 2.18487382e-01
      2.91716665e-01 3.67346913e-01 3.40936363e-01 3.39735895e-01
      4.70588207e-01 5.40216088e-01 4.47779089e-01 4.42977190e-01
      5.21008372e-01 5.87034822e-01 6.41056418e-01 7.32292891e-01
      7.37094820e-01 7.75510192e-01 7.97118843e-01 9.72388923e-01
      1.03841531e+00 1.08043218e+00 1.11404562e+00 1.08163261e+00
      1.11524606e+00 1.27130854e+00 1.43457377e+00 1.62064826e+00
      1.82232893e+00 2.60264087e+00 2.26170468e+00 2.36374545e+00
      3.80552220e+00 3.14525795e+00 4.23889542e+00 3.88235283e+00
      5.06002378e+00 4.69147635e+00 4.76230478e+00 6.20168066e+00
      4.92797089e+00 4.95318127e+00 4.30612230e+00 4.01080418e+00
      3.93277287e+00 3.25330114e+00 2.77070808e+00 3.80672264e+00
      2.21488595e+00 2.65306115e+00 2.36734676e+00 2.24489784e+00
      2.37815118e+00 2.46098423e+00 2.13805509e+00 2.11164451e+00
      1.95678270e+00 2.07563019e+00 1.59543812e+00 1.67707074e+00
      2.21008396e+00 1.45738292e+00 1.31332529e+00 1.37815118e+00
      1.39015603e+00 1.19087636e+00 1.31812716e+00 1.21848738e+00
      8.60744298e-01 1.15846336e+00 8.75150025e-01 9.42376912e-01
      7.52701044e-01 7.77911127e-01 7.29891956e-01 5.37815094e-01
      8.07923138e-01 4.82593030e-01 4.12965178e-01 6.03841543e-01
      3.64945978e-01 7.41896749e-01 3.12124848e-01 4.14165646e-01
      3.70948374e-01 3.31332535e-01 3.49339724e-01 4.33373332e-01
      3.19327712e-01 3.39735895e-01 2.92917162e-01 2.95318127e-01
      3.86554599e-01 2.43697464e-01 3.44537795e-01 3.14525813e-01
      2.64105648e-01 2.13685468e-01 3.07322919e-01 2.42496997e-01
      2.18487382e-01 2.19687864e-01 2.76110440e-01 1.86074421e-01
      1.87274903e-01 2.61704683e-01 1.75270095e-01 2.04081625e-01
      2.07683071e-01 2.46098429e-01 1.52460977e-01 1.77671060e-01
      2.65306115e-01 1.45258099e-01 1.87274903e-01 1.47659063e-01
      1.86074421e-01 1.86074421e-01 1.74069628e-01 2.22088829e-01
      1.74069628e-01 2.04081625e-01 1.87274903e-01 1.62064821e-01
      4.24969971e-01 2.37695068e-01 2.08883554e-01 2.06482589e-01
      2.17286915e-01 2.16086432e-01 2.25690275e-01 2.12484986e-01
      1.98079228e-01 2.52100825e-01 2.14885950e-01 2.20888346e-01
      1.86074421e-01 2.07683071e-01 2.55702287e-01 1.93277299e-01
      2.06482589e-01 2.26890743e-01 2.77310908e-01 2.17286915e-01
      2.43697464e-01 2.66506582e-01 2.62905151e-01 2.82112837e-01
      2.68907547e-01 3.56542617e-01 2.94117630e-01 3.09723884e-01
      3.50540191e-01 3.19327712e-01 3.63745481e-01 3.81752700e-01
      3.36134434e-01 4.08163249e-01 4.08163249e-01 4.36974764e-01
      4.27370936e-01 4.30972368e-01 4.18967575e-01 4.65786308e-01
      4.76590633e-01 4.40576226e-01 6.83073223e-01 4.84993994e-01
      5.30612230e-01 5.90636253e-01 5.65426171e-01 5.67827106e-01
      5.94237685e-01 6.09843910e-01 6.03841543e-01 6.63865507e-01
      5.91836691e-01 6.54261708e-01 7.34693825e-01 7.16686666e-01
      8.11524570e-01 8.83553386e-01 7.68307328e-01 6.90276086e-01
      7.43097186e-01 7.22689033e-01 6.42256856e-01 6.63865507e-01
      5.85834324e-01 4.51380551e-01 4.33373332e-01 3.51740688e-01
      3.80552202e-01 3.10924351e-01 2.95318127e-01 2.67707080e-01
      2.60504186e-01 2.32893154e-01 2.44897947e-01 2.53301322e-01
      2.89315730e-01 2.89315730e-01 2.78511405e-01 3.12124848e-01
      2.74909943e-01 3.08523387e-01 3.48139256e-01 3.28931570e-01
      3.09723884e-01 3.48139256e-01 3.16926748e-01 3.22929174e-01
      3.62545013e-01 3.25330108e-01 3.34933966e-01 3.52941155e-01
      3.56542617e-01 3.06122452e-01 3.49339724e-01 3.70948374e-01
      3.07322919e-01 3.01320523e-01 2.66506582e-01 3.08523387e-01
      2.30492190e-01 2.13685468e-01 2.46098429e-01 2.35294104e-01
      2.12484986e-01 1.74069628e-01 1.99279711e-01 1.53661460e-01
      1.45258099e-01 1.36854738e-01 1.18847534e-01 1.18847534e-01
      1.06842734e-01 9.48379338e-02 1.08043216e-01 8.16326514e-02
      9.12364945e-02 7.92316869e-02 7.68307298e-02 6.36254475e-02
      5.40216081e-02 7.20288083e-02 6.48259297e-02 6.12244867e-02
      7.08283260e-02 9.12364945e-02 6.00240100e-03 1.72509003e+00
      5.04201651e-02 1.18847534e-01 1.71668664e-01 1.60864338e-01
      1.83673456e-01 2.20888346e-01 4.06962782e-01 6.55462146e-01
      7.11884737e-01 7.70708263e-01 7.15486169e-01 5.99039614e-01
      5.57022810e-01 4.17767107e-01 4.35774297e-01 4.53781486e-01
      5.00600219e-01 4.27370936e-01 3.64945978e-01 3.25330108e-01
      3.33733469e-01 3.61344516e-01 3.04921955e-01 3.09723884e-01
      2.12484986e-01 2.34093636e-01 2.23289311e-01 2.05282107e-01
      1.72869146e-01 1.76470578e-01 1.82472989e-01 1.60864338e-01
      1.65666267e-01 1.82472989e-01 1.88475385e-01 1.62064821e-01
      1.86074421e-01 1.47659063e-01 1.63265303e-01 1.58463374e-01
      1.38055220e-01 1.24849938e-01 1.44057617e-01 1.22448973e-01
      1.02040812e-01 1.18847534e-01 1.03241295e-01 9.12364945e-02
      9.60384160e-02 1.06842734e-01 9.84393731e-02 1.14045613e-01
      1.16446577e-01 1.00840330e-01 1.00840330e-01 1.02040812e-01
      1.15246095e-01 1.22448973e-01 1.10444173e-01 1.48859546e-01
      1.34453773e-01 1.32052824e-01 1.36854738e-01 1.57262906e-01
      1.78871542e-01 1.42857134e-01 1.58463374e-01 1.63265303e-01
      1.70468181e-01 1.82472989e-01 1.63265303e-01 2.19687864e-01
      1.99279711e-01 1.99279711e-01 2.24489793e-01 2.41296515e-01
      2.53301322e-01 2.78511405e-01 2.43697464e-01 2.85714269e-01
      2.71308511e-01 2.67707080e-01 2.88115233e-01 3.14525813e-01
      3.46938759e-01 3.57743084e-01 4.16566610e-01 4.78991568e-01
      5.57022810e-01 6.02641046e-01 7.74309695e-01 8.66746664e-01
      1.09603834e+00 1.41056418e+00 1.60864341e+00 1.86674666e+00
      2.13685465e+00 2.60984397e+00 2.89915967e+00 2.89555812e+00
      2.82713079e+00 2.80792308e+00 2.74549818e+00 2.75510192e+00
      2.56542611e+00 2.48379350e+00 2.60384154e+00 2.59903955e+00
      2.44657850e+00 2.17166853e+00 1.82352936e+00 1.70588231e+00
      1.66506600e+00 1.63985586e+00 1.76470578e+00 1.82713079e+00
      2.06482577e+00 2.05762291e+00 2.24009585e+00 2.17527008e+00
      2.32533002e+00 2.29531813e+00 2.35294104e+00 2.23769498e+00
      2.36014390e+00 2.28571415e+00 2.39495802e+00 2.37334919e+00
      2.26170468e+00 2.28571415e+00 2.24009585e+00 2.17887139e+00
      2.15726280e+00 2.18487382e+00 2.03361344e+00 1.93037212e+00
      1.92557013e+00 1.70108032e+00 1.60144055e+00 1.50300109e+00
      1.36854732e+00 1.33013201e+00 1.12845135e+00 1.08283305e+00
      1.02400959e+00 9.86794710e-01 9.15966332e-01 9.08763468e-01
      7.87514985e-01 6.92677021e-01 7.21488595e-01 7.17887104e-01
      6.77070796e-01 6.23049200e-01 6.27851129e-01 5.77430964e-01
      5.85834324e-01 5.82232893e-01 5.78631461e-01 5.77430964e-01
      4.99399751e-01 5.53421378e-01 4.72989172e-01 4.86194462e-01
      4.33373332e-01 5.18607438e-01 4.80192065e-01 5.10204077e-01
      5.10204077e-01 4.93397355e-01 4.04561818e-01 3.92557025e-01
      4.40576226e-01 4.27370936e-01 3.91356528e-01 3.94957960e-01
      3.82953167e-01 3.79351735e-01 4.02160853e-01 4.12965178e-01
      3.97358924e-01 4.26170468e-01 4.18967575e-01 3.91356528e-01
      4.05762285e-01 3.90156060e-01 4.03361320e-01 3.48139256e-01
      3.99759889e-01 3.72148842e-01 3.97358924e-01 4.11764681e-01
      3.86554599e-01 4.02160853e-01 4.06962782e-01 3.74549806e-01
      4.16566610e-01 4.10564214e-01 4.71788704e-01 5.61824739e-01
      5.65426171e-01 5.60624242e-01 5.75029969e-01 5.35414159e-01
      5.57022810e-01 5.63025177e-01 5.75029969e-01 5.45018017e-01
      5.89435756e-01 6.05041981e-01 6.00240052e-01 7.03481376e-01
      7.19087601e-01 7.70708263e-01 8.71548593e-01 9.18367326e-01
